tree
version=v4
num_class=1
num_tree_per_iteration=1
label_index=0
max_feature_idx=42
objective=binary sigmoid:1
feature_names=V14_x_V4 Amount_x_HourCos V26 V8 V_Max Hour_Cos V12_x_V10 V17 V10 V4_x_V11 V4 V13 V3 V_Magnitude V17_x_V3 V16 V19 Scaled_Time V7 V14 Hour_Sin V14_x_V17 V20 Amount_x_HourSin V_Min V_Kurtosis V_Mean V1 V21 V11 V6 V22 V9 V_Std V25 V5 V12 Scaled_Amount V14_x_V12 V28 Log_Amount V2 V18
feature_infos=[-191.28530883789062:101.06998443603516] [-18267.21875:15097.23046875] [-2.6045506000518799:3.517345666885376] [-73.216720581054688:19.587772369384766] [0.39691731333732605:39.420906066894531] [-1:1] [-160.6461181640625:260.64944458007812] [-25.162799835205078:9.2535266876220703] [-24.588262557983398:23.745136260986328] [-38.157379150390625:120.69724273681641] [-5.683171272277832:16.875343322753906] [-5.7918810844421387:4.5690088272094727] [-33.680984497070312:9.3825588226318359] [2.0556316375732422:113.10639953613281] [-141.51179504394531:402.18222045898438] [-14.129854202270508:6.4427981376647949] [-7.2135272026062012:5.5721135139465332] [-0.99621212482452393:1.0332332849502563] [-43.557243347167969:36.677268981933594] [-19.214324951171875:10.526765823364258] [-1:1] [-48.959434509277344:381.93576049804688] [-25.222345352172852:39.420906066894531] [-8730.298828125:11386.91015625] [-73.216720581054688:-0.34199702739715576] [-1.3926690816879272:12.07060718536377] [-7.0841035842895508:0.80180054903030396] [-56.407508850097656:2.4518885612487793] [-34.83038330078125:27.202838897705078] [-4.6829304695129395:12.018913269042969] [-26.160505294799805:22.529298782348633] [-10.933143615722656:10.503089904785156] [-13.434066772460938:15.59499454498291] [0.3865712583065033:21.191095352172852] [-7.0813255310058594:6.0708503723144531] [-42.147899627685547:34.801666259765625] [-18.431131362915039:7.8483920097351074] [-0.30643868446350098:273.489990234375] [-13.66657543182373:341.422119140625] [-11.710895538330078:33.847808837890625] [0:9.8862161636352539] [-72.715728759765625:22.057729721069336] [-9.4987459182739258:5.0410690307617188]
tree_sizes=2334 3418 4954 4731 3992 4648 4218 4314 4121 3779 4249 4119 3599 4522 3904 4247 3044 3287 3374 2962 2639 3153 3808 3693 3153 2951 3683 3364 3603 3271 3055 2728 3475 3703 2950 2952 3361 2628 3472 2635 2848 2743 3787 2632 3058 3595 2829 2522 3270 3060 3268 2940 2850 3395 3262 3160 2416 2629 2524 4223 2833 3382 3180 2620 3044 3151 3069 3930 3156 3368 2842 3830 2923 2961 3273 3060 3158 2191 3375 2842 2623 3055 3490 2853 2839 3138 3597 1869 3052 2739 3069 2290 2740 2201 2408 2640 2937 3081 2727 1876 3499 2528 1989 2512 2207 3275 2529 1984 2835 1761 1440 2520 1881 1978 2929 3270 3370 2750 2967 2539 3278 1778 2199 2614 2733 2300 3063 2739 2734 3600 2741 3385 2425 2632 3490 1982 3286 2527 2746 2747 2648 2841 3912 3389 3053 3388 2090 3813 2943 3698 3279 2199 2972 2416 2199 2320 3939 2302 3917 3273 2961 2838 3278 2312 2739 3944 3698 2203 2951 2727 2846 2955 3513 2209 3934 3063 2853 2517 3192 3490 3618 3310 2958 2086 2419 3491 3815 2214 3617 3503 2420 2747 2531 2313 2973 2957 3606 2417 3612 2963 2622 3823 3292 3174 2517 3088 3085 3583 2861 2639 2848 2964 3626 3291 3178 2523 2317 1977 3401 3703 2328 2748 3183 2528 4149 3400 3503 2950 3619 3195 2751 3172 2202 2421 3282 3520 2546 3480 3059 3505 2858 2960 3405 2864 2744 3414 3166 3623 2634 3304 3293 2940 2975 2852 3293 2737 3173 2642 3070 2862 3080 2427 2859 3307 3622 2986 3411 3104 2527 3518 3094 3303 2201 2741 3197 3954 2426 2320 2747 3503 3069 2747 3623 2650 2760 3497 2634 2322 2984 3199 3498 3183 2323 3186 2631 3198 3516 2530 2755 2646 3617 2977 3307 3527 2323 2982 3499 3402 3415 3197 2087 3413 3391 2636 3397 2759 2754 3198 3733 2954 2334 2424 2431 2537 2742 2747 2438 3298 3082 2309 3310 3183 2537 3299 2851 3307 2970 2654 3525 3209 2777 3080 2746 2890 3963 1989 2851 2650 2854 3424 2886 3521 2967 2759 2661 2656 3106 2981 2554 2109 2865 3647 2647 3645 2973 2635 3285 3079 2661 3195 2972 2660 2990 2983 2981 2335 2985 3089 3305 2877 3090 2546 3086 3199 3095 3637 2984 2545 2763 2657 3418 2980 3409 2757 2647 3189 3093 3432 2545 2536 2980 3207 2991 3087 3225 2551 2554 2866 3202 2551 2543 2317 3204 2655 2437 2886 3446 2542 2891 3104 2758 2667 3860 2876 2763 2967 3098 2446 2765 2460 3110 3325 3336 2653 2553 2541 2566 2987 2331 2554 2981 2542 2329 3117 2444 2765 2982 3332 3202 2331 2894 2656 2761 2652 2231 2564 2332 2556 3103 2890 3005 2563 2223 2881 2771 3106 2553 2560 2777 2446 2659 2769 2556 2109 2770 2672 2781 2126 3114 3006 2672 2767 2551 2452 2465 2784 2326 2455 2452 2555 2449 2232 2889 2230 2231 2238 2231 2573 2669 2555 2663 2342 2345 2779 2331 2444 2121 2013 2240 2456 2346 2115 2563 2451 2563 2131 2449 2796 2455 2900 2228 2113 2120 2461 2587 2680 3011 2801 2353 2346 2119 2345 2545 2230 2455 2580 2567 2361 2344 2570 2012 2358 1691 2237 1907 2128 2446 1904 2236 2247 2117 2256 2143 2235 2132 2573 2009 2142 1681 2132 2239 2240 2032 2006 2248 2335 2687 1784 2004 1795 2023 2232 1791 2241 1469 2128 2134 2139 1793 1678 2457 1910 2123 1911 1578 2245 2017 2246 2025 1805 1680 1902 2227 1800 1804 2022 1704 1575 2009 1474 1574 1356 1800 1796 1802 2145 1703 2132 1806 2246 1798 1349 1471 1689 1371 1801 913 1902 1148 1685 1472 1576 1917 1582 1474 1699 1357 1358 1686 2042 1362 1915 1800 1793 1589 1914 1467 1809 1820 1579 1578 1577 1693 1359 1366 1704 1579 1362 1586 1037 1246 1803 1590 1361 1469 1471 1802 1693 1470 1354 1483 1582 1143 1456 1476 1580 1475 1360 1588 1467 1136 1037 1244 1360 1358 1259 1487 1370 1698 1583 1469 1459 1478 1148 1366 1474 1260 1589 1358 1152 1704 1253 1246 1244 1138 1141 1474 1251 1586 1252 1250 1261 1353 1474 1139 1468 1472 1600 1252 1145 1264 930 1032 1251 1366 928 1467 1369 1359 1366 815 1148 1586 1259 1143 813 1248 1036 923 1031 1369 487 1366 1248 925 706 1143 1476 1356 921 927 1143 1481 1138 1251 1367 1257 707 1030 1141 1032 1035 708 487 1266 1038 1145 1362 925 1259 917 931 1037 1040 1045 1022 1580 1029 1256 1135 1367 820 1152 1478 1131 927 1473 1355 1038 817 1140 817 1361 599 712 1253 1032 821 1037 1043 1264 1028 926 1240 1035 709 1035 1030 1035 704 697 1144 1031 1027 817 815 1244 928 813 928 1149 706 926 1137 1153 590 1032 1035 598 818 1139 1035 810 814 932 595 708 1143 1135 821 1143 1034 931 1033 808 595 820 1029 601 815 924 926 812 927 926 922 1042 820 928 699 596 486 932 929 706 819 819 714 593 928 1141 598 923 816 927 1137 1260 704 817 710 1252 1043 598 822 918 822 596 1142 1145 710 704 810 927 814 932 1030 814 604 710 927 593 1025 928 1041

Tree=0
num_leaves=21
num_cat=0
split_feature=0 3 13 33 16 12 36 25 26 22 27 14 40 3 13 15 26 36 12 7
split_gain=2.38493e+07 791480 483863 446616 321910 160936 159096 131838 123974 99897.3 81555.4 76643.5 69588.7 60177.1 53726.1 32114.1 26624.5 25581.9 23688.8 5052.63
threshold=-1.6714408993721006 -0.394093707203865 6.709022283554078 1.0226981043815615 -0.50500178337097157 0.70891860127449047 -0.23813933134078977 2.8715544939041142 0.056714495643973357 -0.065514478832483278 1.2482626438140871 -0.38150383532047266 0.98020231723785411 0.37119351327419287 5.725534439086915 1.8241337537765505 0.16246648877859118 0.48493240773677831 2.2334235906600957 1.1854313015937807
decision_type=2 2 2 2 2 2 2 2 2 2 2 2 2 2 2 2 2 2 2 2
left_child=2 3 14 18 6 7 9 8 -5 10 11 -3 16 -13 17 -6 -8 -1 -2 -17
right_child=1 4 -4 5 15 -7 12 -9 -10 -11 -12 13 -14 -15 -16 19 -18 -19 -20 -21
leaf_value=-1.5150036257056572 -6.3771348370793568 -6.3644000552339017 8.9867370976116945 2.2319319368357728 -6.3855994297627916 -6.365638947486306 -6.3659669077031884 -6.3640514841514788 -6.3633487450216446 -6.3682546688185386 -6.365638947486306 0.088563419806419574 -6.3801761449533121 -6.3628575459496757 -6.3657023756188496 -6.3630188101177891 -3.148938246729537 -6.3619921256290413 -4.5221247554313031 -4.4890494928003992
leaf_weight=5.8096830087015388 13.756442028796299 1.8045194835867722 191.86492897605058 16.93850604176988 133.73801090498455 2.3444951990386462 2.4980346197262433 1.6630561971105624 1.390480596339329 3.7177241750759995 2.3444951990386462 10.015562297077851 23.111995718558319 1.2093385831685726 2.3738229535520077 1.2679940921952941 2.5330690868431702 0.90743522788397957 1.2604964763158921 1.1069570556282995
leaf_count=1061 7974 1046 2228 2322 77522 1359 1448 964 806 2155 1359 1769 13397 701 1376 735 315 526 154 65
internal_value=1.81392 -4.68069 8.6276 -1.32538 -5.53633 0.675209 -3.71865 1.27637 1.76884 -2.11748 -1.42506 -0.859776 -5.47231 -0.328539 -2.47565 -6.27272 -3.79186 -1.82487 -5.65896 -4.73153
internal_weight=421.657 220.701 200.956 37.3535 183.348 22.3365 47.2347 19.992 18.329 19.0916 15.3739 13.0294 28.1431 11.2249 9.09094 136.113 5.0311 6.71712 15.0169 2.37495
internal_count=119282 114091 5191 13579 100512 5451 22190 4092 3128 7030 4875 3516 15160 2470 2963 78322 1763 1587 8128 800
is_linear=0
shrinkage=1


Tree=1
num_leaves=31
num_cat=0
split_feature=24 40 1 13 0 19 13 1 8 9 13 25 29 9 12 1 42 39 30 8 19 24 5 3 35 42 19 40 34 13
split_gain=50171.8 57959.8 25451.7 23611.4 169376 133456 72766.4 33310.7 60966.9 34072.6 21923 14770.5 18410.7 12752.2 10501.8 23171.4 9429.01 8041.64 12139.9 7755.05 6499.97 6173.65 2681.39 2880.92 2278.32 292.075 122.338 38.1673 59.7816 24.6107
threshold=-0.880426526069641 0.82636362314224254 -0.8738756775856017 5.7814350128173837 -1.6714408993721006 -3.6150081157684322 6.709022283554078 108.49352645874025 -0.71022671461105336 0.4898343980312348 5.7499115467071542 -0.49837985634803766 1.4528871178627016 -1.2886734604835508 -2.5210884809494014 31.052573204040531 -2.5193300247192378 -0.35656231641769404 1.2109944224357607 -2.2164045572280879 -1.0361323356628416 -1.0481496453285215 -0.99904027581214894 -0.394093707203865 -0.065981887280940996 -1.8643553853034971 -3.6150081157684322 0.10884435102343561 -1.5216612815856931 5.4233295917510995
decision_type=2 2 2 2 2 2 2 2 2 2 2 2 2 2 2 2 2 2 2 2 2 2 2 2 2 2 2 2 2 2
left_child=3 2 -2 7 5 25 -7 10 9 -9 14 12 -6 -12 15 29 -8 18 -16 26 21 -19 -21 -24 -22 -5 -13 -28 -29 -1
right_child=1 -3 -4 4 11 6 16 8 -10 -11 13 19 -14 -15 17 -17 -18 20 -20 22 24 -23 23 -25 -26 -27 27 28 -30 -31
leaf_value=-0.010386844045761895 3.3215471504114387 -0.019025569258274058 -0.0065171803266853732 -0.024596315142422047 -0.11850754556347681 -0.0062155374327657322 -0.027611604658985777 -0.019197673692411866 -0.061841848032923447 3.2464176179833601 1.7965231065409391 0.051099343144742397 1.5436518385674043 -0.058952232730463384 -0.05041104000148932 1.7325890209572272 -5.9472822408608836 0.097081034009340539 1.0726563378022667 0.010413259230282246 -0.052959264762003778 0.51212000649470157 -0.26976664102473163 -0.043424974748145238 0.028582233119016781 -0.29648009237432243 0.028930263311243796 0.025610122249339243 -0.013278341499268188 -0.11886895564627629
leaf_weight=3.6052149147726578 2.1973479667212814 12.465927035198545 2.1890937807038453 6.0688886134594213 8.6777600594796223 2.1420436678454275 0.28988774016033803 3.2525080062914666 17.723052368382923 2.4207628861768171 1.4509915481321511 144.13405150664039 2.8069472509669131 3.6379322233842677 14.170003286795692 1.6912170191062603 1.244155192631297 577.97899859538302 7.3394769296282893 54.853330986923538 338.42510680283885 22.817012459272519 156.43839447980281 65.28685191005934 1228.0276251516771 5.3930184645869286 101.12296468066052 50.841196635970846 59.853562383563258 7.6729254883248359
leaf_count=751 87 6196 720 102 501 1250 12 566 2407 192 88 3 100 353 1791 72 1878 6517 132 352 40905 21 4155 11011 38377 234 4 15 465 285
internal_value=0.0406529 1.3086 2.7071 0.0298661 -0.116911 -2.50142 -4.68362 0.073495 0.98881 2.43225 0.0604524 -0.0325238 0.7389 1.22726 0.0535705 0.686487 -5.78134 0.047473 0.511937 -0.0550814 0.041102 0.119004 -0.164544 -0.206745 0.010796 -0.219461 0.0316239 0.0170688 0.00507757 -0.102263
internal_weight=2906.22 16.8524 4.38644 2889.37 659.153 15.138 3.67609 2230.21 23.3963 5.67327 2206.82 644.015 11.4847 5.08892 2201.73 12.9694 1.53404 2188.76 21.5095 632.53 2167.25 600.796 276.579 221.725 1566.45 11.4619 355.952 211.818 110.695 11.2781
internal_count=119542 7003 807 112539 20082 3476 3140 92457 3165 758 89292 16606 601 441 88851 1108 1890 87743 1923 16005 85820 6538 15518 15166 79282 336 487 484 480 1036
is_linear=0
shrinkage=0.028079


Tree=2
num_leaves=45
num_cat=0
split_feature=24 16 0 31 6 23 21 2 18 24 8 19 7 24 21 24 33 6 19 32 0 31 4 30 33 8 33 16 33 33 0 28 33 42 7 18 14 30 0 0 33 6 33 33
split_gain=15429.9 22739.8 54085.9 28431.2 13283.8 9597.91 7869.56 7668.87 14113.9 6616.11 5487.79 4415.73 3292.52 2391.08 2378.9 3064.51 2069.99 1999.76 1949.06 1697.32 1766.14 1551.33 1012.23 786.132 785.43 756.025 876.049 678.6 654.459 533.017 458.957 394.611 316.78 294.23 263.367 217.147 209.186 123.733 66.7736 18.7351 11.6248 11.2889 7.92436 2.43792
threshold=-2.4369966983795162 0.4189580380916596 0.35712876915931707 0.56673803925514232 -0.080944422632455812 -518.03561401367176 -0.69529959559440602 -0.92951461672782887 -0.63349109888076771 -0.880426526069641 0.40576134622097021 1.0953999161720278 -0.8572368025779723 -1.0481496453285215 -5.4985787868499747 -9.7294960021972638 1.193207919597626 0.032526191323995597 -1.4208046793937681 -0.10159867256879805 -1.6714408993721006 -0.11838788539171217 1.0875733494758608 -0.094335380941629396 1.1480520367622378 3.8393549919128422 1.0226981043815615 1.4056479930877688 1.2487993240356448 1.0226981043815615 -1.6714408993721006 -0.93498942255973805 1.0410744547843935 -2.5193300247192378 -0.8187820017337798 1.0663378238677981 0.89569431543350231 0.89751079678535473 1.4480484724044802 -1.6714408993721006 1.0321201086044314 3.7141914367675786 1.0226981043815615 1.0226981043815615
decision_type=2 2 2 2 2 2 2 2 2 2 2 2 2 2 2 2 2 2 2 2 2 2 2 2 2 2 2 2 2 2 2 2 2 2 2 2 2 2 2 2 2 2 2 2
left_child=7 6 5 -4 -5 -3 13 8 -1 22 11 14 -11 21 15 -9 39 18 37 25 -21 -2 35 36 43 26 -12 -25 -17 -20 -18 -24 34 -10 -33 -8 -19 -16 -28 -13 -22 -34 -41 -7
right_child=1 2 3 4 -6 24 9 10 33 12 19 16 -14 -15 17 28 30 23 29 20 40 -23 31 27 -26 -27 38 -29 -30 -31 -32 32 41 -35 -36 -37 -38 -39 -40 42 -42 -43 -44 -45
leaf_value=1.0362806498409718 0.13018766583881294 0.50131263527354752 -0.02597496763261023 2.0813765794246764 -0.015729948551499572 -0.027058480514338117 -0.036670291595947327 0.021859129874361696 0.017981768002864797 0.47965664255547508 -0.049442479783158466 -0.023829184708731566 -0.020974058588936469 0.33825159816180644 -0.038231294176656341 -0.028425719075700521 -0.43390884870728635 0.012217869731229056 -0.031015176041327686 -0.50310552995941993 -0.018264095995845397 -0.046721912259217152 0.0173329641619227 -0.14336680294451207 -0.26742125017575175 0.020935520364288848 -0.21703496343660655 0.017076725257289985 -0.46200194284042628 -0.20969066958357252 -0.16901616971841754 0.0087665658088393276 -0.11529950232084951 -0.15398086472826056 -0.049319451142653729 0.049609625520467257 0.041711248635234767 0.020449653516632707 -0.071775970427296762 -0.04237438686167122 -0.16708732343169003 -0.015187417988537068 -0.098161860306359136 -0.057380199185934289
leaf_weight=7.1589076947420862 478.19258040189743 23.346034675603732 7.9641029130434644 15.594251600094141 2.5290204611374056 51.78965678520035 21.432571327313781 25.612655182834715 12.658377169049349 24.749091303558089 58.124819852644578 14.992143789655527 14.348111624945885 37.042292580706999 35.054801144899102 4.304808400222103 18.165139334683772 351.25820395443588 19.713241595774889 16.462274775592959 2.4190288315294302 38.790455779759213 78.111288523650728 33.726093468052568 8.0849214686313626 25.270611688029021 60.858762546587968 38.993190591805615 15.149828311812596 64.244578461279161 27.604165183962323 70.907259788829833 48.477650110144168 8.450820028490849 374.04611192434095 145.08031065494288 427.64526068905252 77.018806549487635 12.816800934961064 24.447492817067541 48.387012813822366 3.4414783640531814 20.948990188306198 7.8448772166157132
leaf_count=91 1381 20 3999 1019 1215 17952 3374 7 3 78 2079 278 5482 54 418 257 537 1550 2688 499 405 2514 240 2040 596 6 2169 98 525 4370 1151 5773 3670 456 45350 78 387 126 780 1355 2857 49 676 926
internal_value=0.0251619 0.0896677 0.452513 1.41541 1.87017 0.0894228 0.0554507 -0.0394867 0.36692 -0.00219752 -0.0494525 -0.025096 0.322275 0.135612 -0.00771255 -0.191944 -0.191636 0.00152934 -0.077609 -0.17456 -0.288824 0.116432 -0.0223823 0.0202678 -0.0886183 -0.114621 -0.140338 -0.0638207 -0.400835 -0.173759 -0.320706 -0.0399539 -0.0490844 -0.0732911 -0.0400711 0.0373952 0.0286558 0.000840564 -0.200786 -0.0690418 -0.163281 -0.111434 -0.0784457 -0.0370477
internal_weight=2903.26 1451.77 117.153 26.0874 18.1233 91.0655 1334.62 1451.49 28.2681 780.594 1423.22 1198.88 39.0972 554.025 1092.72 45.0673 106.158 1047.65 196.031 224.339 67.2683 516.983 741.497 851.623 67.7195 157.071 131.8 72.7193 19.4546 83.9578 45.7693 574.984 496.873 21.1092 444.953 166.513 778.903 112.074 73.6756 60.3886 50.806 51.9191 45.3965 59.6345
internal_count=119578 93770 25727 6233 2234 19494 68043 25808 550 64094 25258 16463 5560 3949 12466 789 3997 11677 7602 8795 3761 3895 58534 4075 19474 5034 5028 2138 782 7058 1688 55082 54842 459 51123 3452 1937 544 2949 2309 3262 3719 2031 18878
is_linear=0
shrinkage=0.028079


Tree=3
num_leaves=43
num_cat=0
split_feature=10 1 2 31 12 33 9 36 33 2 6 18 19 22 15 9 0 0 11 29 2 3 16 0 36 27 21 37 26 1 33 33 33 0 19 21 36 33 29 36 27 3
split_gain=17902 15824.1 32363.9 19665.3 12038.7 8494.81 7937.34 10003.7 4576.74 4541.83 4325.61 3990.57 2862.99 2655.17 2323.9 1654.77 1636.74 1549.81 1481.1 888.194 880.754 750.596 680.577 647.099 626.254 1481.97 594.963 585.687 357.908 467.78 287.205 166.765 144.314 75.1321 71.1794 67.9687 61.6583 54.2118 34.8185 21.7913 2.19601 2.49207
threshold=-0.48379731178283686 41.630794525146491 -0.2851425558328628 -0.29945372045040125 -1.1179466843605039 1.0764348506927492 0.95235836505889904 0.19126122444868091 1.1480520367622378 1.4054441452026369 0.032526191323995597 -0.11965621262788771 -1.473818778991699 0.62160319089889537 0.36973664164543157 1.9039884209632876 -1.6714408993721006 -4.0001206398010245 0.71046712994575512 2.2159470319747929 -0.37484662234783167 -0.394093707203865 -1.4686380624771116 -1.6714408993721006 -0.22012893110513684 1.788855314254761 -2.091263890266418 -0.29578298330307001 -0.2384163364768028 -459.14021301269526 1.0226981043815615 1.0226981043815615 1.0226981043815615 -1.6714408993721006 -3.6150081157684322 5.1716394424438485 -2.0117853879928584 1.2618958353996279 0.68538168072700512 -2.9598184823989864 1.2482626438140871 0.37119351327419287
decision_type=2 2 2 2 2 2 2 2 2 2 2 2 2 2 2 2 2 2 2 2 2 2 2 2 2 2 2 2 2 2 2 2 2 2 2 2 2 2 2 2 2 2
left_child=8 5 3 34 -5 6 9 17 21 14 12 -9 33 -6 27 36 -10 -8 24 -13 23 30 -22 -16 28 -26 -4 -2 -12 -30 -1 -28 -29 -7 -3 37 -14 -20 -17 -33 41 -23
right_child=1 2 26 4 13 10 7 11 16 -11 18 19 15 -15 20 38 -18 -19 35 -21 22 40 -24 -25 25 -27 31 32 29 -31 -32 39 -34 -35 -36 -37 -38 -39 -40 -41 -42 -43
leaf_value=-0.019522021484206533 0.023456208689835424 0.017866314734066937 0.018756612028351289 1.3077010921084073 -0.040442426216564249 -0.40538647721947119 0.12503162810192386 0.61098250300713364 -0.38044564874054781 0.30747171717779509 0.027786232411608418 -0.019018310282990468 -0.0353613489367509 0.51168378499079203 0.12196210446647911 0.024298428171608762 -0.16652938371089293 -0.045674681609586792 -0.055614173373402166 0.26236653094618984 0.046017066192819762 -0.048558504617567222 -0.040517715681470869 0.042734981310491527 -0.22135610141286846 0.022724868621210554 -0.030195195055023705 -0.043563166105545031 0.018056358784951015 -0.08787924518452625 -0.17776018275906413 -0.015926615365119752 -0.11469547754490504 -0.094389107917695822 -0.062499426848802969 -0.015497253241400871 -0.18283017999623644 -0.2270844669885746 -0.012067101083030118 -0.15928818796898686 -0.021107661738680911 -0.025205042323384001
leaf_weight=13.139794856309889 108.28394453623332 12.439520835876467 50.971974606523872 28.543051260043285 7.5300127501832348 24.21268837800017 195.799560546875 43.467699740896933 49.853570728635532 41.102173409890383 507.2007714889769 9.3410834084497747 6.5569222504273048 22.719436782761477 199.77415734925307 39.65121803781949 105.20057831914164 48.60310146806296 8.2285350486054138 48.55675847735256 351.19393857265823 234.03359071153682 83.299451159546152 153.51373792637605 22.756987620246946 52.145071756094694 18.304111283854581 219.74787878210191 78.537030635357951 46.583454675099347 49.666979206260294 2.7090052975108874 22.610746342688799 6.3166876454488365 9.607239355449563 3.2173194693459655 70.505425199051388 15.074550277611705 30.798840328818187 23.978082481073216 21.052423882065341 30.5393608235172
leaf_count=3455 808 1 55 306 870 616 2 1383 1228 200 241 2361 357 120 32 35 5160 1517 635 33 471 16572 11994 2132 1454 181 3346 35740 110 773 756 103 1103 290 795 85 4104 627 356 1208 10127 7360
internal_value=0.0259356 0.0555161 0.306448 0.694233 0.935718 0.0364215 0.076813 0.193681 -0.126185 0.0415401 -0.0312238 0.418402 -0.152328 0.393618 0.0299762 -0.0908385 -0.249781 0.0907327 -0.000585746 0.220012 0.0565753 -0.067053 0.0290182 0.0891503 0.00804171 -0.0649121 -0.0470328 -0.0297163 0.0173475 -0.0241411 -0.150303 -0.113552 -0.0534642 -0.372514 -0.0241642 -0.181452 -0.174558 -0.194964 0.00877118 -0.151457 -0.0453474 -0.046637
internal_weight=3117.37 2613.88 176.802 80.8393 58.7925 2437.08 1525.29 345.768 503.486 1179.53 911.786 101.366 178.042 30.2494 1138.42 147.512 155.054 244.403 733.744 57.8978 787.781 348.432 434.493 353.288 707.223 74.9021 95.9632 350.643 632.321 125.12 62.8068 44.9912 242.359 30.5294 22.0468 26.5204 77.0623 23.3031 70.4501 26.6871 285.625 264.573
internal_count=119102 74444 6804 2092 1296 67640 57776 5296 44658 52480 9864 3777 5758 990 52280 4852 6388 1519 4106 2394 14629 38270 12465 2164 2759 1635 4712 37651 1124 883 4211 4657 36843 906 796 1347 4461 1262 391 1311 34059 23932
is_linear=0
shrinkage=0.028079


Tree=4
num_leaves=36
num_cat=0
split_feature=33 18 36 11 19 14 19 24 1 8 19 42 0 8 40 14 39 36 6 6 27 3 14 14 33 38 25 19 10 40 29 33 38 33 3
split_gain=16166.7 13169.1 12157.2 9897.52 7062.29 5959.1 5010.08 4826.16 3297.44 2790.79 2184.33 2112.99 2723.84 1804.12 1791.91 1694.69 1469.87 1436.61 1263.29 1142.39 982.936 408.959 368.492 323.527 213.832 196.562 598.454 155.678 42.1452 91.2348 121.669 32.6727 19.8709 18.3824 6.38701
threshold=1.094342112541199 3.0348211526870732 0.6524072289466859 -0.9257768690586089 -0.46990297734737391 -0.16670460253953931 -0.48114985227584833 -0.83095183968543995 49.97200012207032 -2.0118367671966548 -1.8791164159774778 -0.58927178382873524 -1.6714408993721006 -0.04657387547194957 0.98020231723785411 -0.39292792975902552 0.059936106204986579 -2.9598184823989864 -2.0662460327148433 0.41909235715866094 -0.97489160299301136 -0.394093707203865 -0.1910622492432594 -0.38150383532047266 1.0226981043815615 -1.3129197955131529 -0.51266631484031666 -3.6150081157684322 1.2918491959571841 0.56814667582511913 2.4040166139602666 1.0226981043815615 -5.9077394008636466 1.1195434331893923 0.37119351327419287
decision_type=2 2 2 2 2 2 2 2 2 2 2 2 2 2 2 2 2 2 2 2 2 2 2 2 2 2 2 2 2 2 2 2 2 2 2
left_child=1 2 4 8 6 10 7 15 13 20 -4 18 -13 23 22 16 -1 -6 -11 -17 27 24 -12 25 -19 -2 -27 -5 29 -25 -31 -7 -20 -34 -23
right_child=3 -3 5 9 17 31 -8 -9 -10 11 14 12 -14 -15 -16 19 -18 21 32 -21 -22 34 -24 28 -26 26 -28 -29 -30 30 -32 -33 33 -35 -36
leaf_value=-0.036541453711156677 0.019265215878815214 0.46744693732854198 0.60301586155397868 -0.013785443654547412 0.037315644319487869 -0.02302163703466439 0.39459116405078776 0.36692530618661062 0.20894141877288105 0.0036997662862424336 0.19827891590645949 -0.33494497384557059 -0.14345118069835547 -0.17169829916435997 -0.032256552564919015 -0.045353894452112534 0.11564833637146013 -0.019570926673897818 -0.023893520309602449 0.045853599956299992 0.015771732557708047 -0.048478933461968986 0.35215699765301217 0.028271827185349024 -0.15716218072284616 0.020684462467486911 -0.16843803290689288 -0.18812766819220544 0.028786757923929002 -0.05711784635660256 0.022263263470203486 -0.083719552235806169 -0.02193330129219679 -0.16791477724667062 -0.026004265130537947
leaf_weight=53.133930860145483 25.387833729735576 57.795431713049766 18.458943229517899 6.2359090424251944 162.84548426920082 32.123155310051516 31.089040032704361 33.873075644951314 59.457152581366245 71.54028684925288 63.940422045765445 100.95638828366646 176.6515919964877 36.76544473040849 12.809370850620324 125.63750452938257 419.32491395121906 13.970637636841273 3.6704259233665644 594.50948527385481 104.74603749171365 415.98940895294072 77.874212254420854 66.318249325267971 38.644803597475402 24.560749971307814 17.731662910257 19.459979745239252 329.75208687809209 23.602483237445995 23.819616255932488 7.0641734623350194 3.1759983394877045 63.056556625873782 39.609373293467797
leaf_count=4901 15 66 47 102 628 15579 301 255 223 224 996 2178 9761 1278 6079 9628 1242 4847 22 931 150 42539 72 7 587 19 487 586 156 411 5 733 322 2766 10906
internal_value=0.0296119 0.0742322 0.0620116 -0.0551215 0.039294 0.259978 0.0783817 0.0680011 0.023009 -0.140626 0.328208 -0.17542 -0.220116 0.000267487 0.268854 0.0572558 0.0982271 -0.0340137 -0.0809882 0.029636 -0.0253663 -0.0570812 0.296308 0.0149551 -0.127669 -0.0393416 -0.0721119 -0.158558 0.0237611 0.00830577 -0.0196641 -0.0457208 -0.159571 -0.163876 -0.0469808
internal_weight=3355.58 2198.69 2140.9 1156.89 1928.63 212.27 1257.57 1226.48 607.395 549.493 173.083 419.051 277.608 547.938 154.624 1192.61 472.459 671.06 141.443 720.147 130.442 508.214 141.815 511.173 52.6154 67.6802 42.2924 25.6959 443.492 113.74 47.4221 39.1873 69.903 66.2326 455.599
internal_count=119049 100337 100271 18712 76765 23506 17258 16957 2601 16111 7194 15273 11939 2378 7147 16702 6143 59507 3334 10559 838 58879 1068 1100 5434 521 506 688 579 423 416 16312 3110 3088 53445
is_linear=0
shrinkage=0.028079


Tree=5
num_leaves=42
num_cat=0
split_feature=10 24 28 24 27 31 24 39 8 34 42 24 3 34 9 8 3 34 7 21 21 32 0 11 9 21 18 0 4 31 20 4 0 4 0 24 38 4 0 4 16
split_gain=14951.1 8562.23 5153.36 5181.95 3891.96 3222.14 2591.29 2810.94 2043.44 1801.76 1781.58 1330.15 1256.54 1160.81 1034.72 762.293 694.539 672.105 477.861 1079.06 862.564 402.778 309.346 291.132 727.968 193.44 668.943 185.006 159.693 109.445 100.44 36.6182 28.9982 23.4647 43.7511 20.0066 12.4328 3.51038 3.17524 3.02065 1.05023
threshold=-0.28808005154132837 -2.4369966983795162 0.32322944700717932 -1.8936790227890012 -2.0211158990859981 -0.11838788539171217 -1.1959344148635862 0.059936106204986579 0.26733939349651342 0.37246428430080419 1.6276541352272036 -3.0494483709335323 -0.1343104690313339 -0.49625705182552332 -0.66128462553024281 -0.15245361626148221 -0.394093707203865 -0.53152790665626515 0.11621104553341867 -5.4985787868499747 -0.41844096779823298 -0.27677823603153223 -1.6714408993721006 -1.4914270043373106 -3.0730278491973873 0.16835185140371325 -3.4167178869247432 -1.6714408993721006 3.7518571615219121 1.7828419208526614 -0.82208195328712452 3.6553703546524052 -1.7731037735939024 2.945164799690247 -1.6714408993721006 -1.5304145812988279 -2.0814822912216182 1.2736505270004275 3.8438206911087041 2.0989489555358891 -1.9978038668632505
decision_type=2 2 2 2 2 2 2 2 2 2 2 2 2 2 2 2 2 2 2 2 2 2 2 2 2 2 2 2 2 2 2 2 2 2 2 2 2 2 2 2 2
left_child=11 8 4 29 -3 6 7 31 10 -8 14 27 21 17 36 -9 35 -10 25 -20 -21 30 -15 -5 -25 26 -16 -1 -14 -4 -7 -6 -30 -18 -35 -13 -2 -29 40 -23 -24
right_child=1 2 3 23 5 12 9 15 13 -11 -12 16 28 22 18 -17 33 -19 19 20 -22 39 38 24 -26 -27 -28 37 32 -31 -32 -33 -34 34 -36 -37 -38 -39 -40 -41 -42
leaf_value=-0.20627884101647731 -0.020584255180101031 0.3275138139583707 -0.053524376965785221 0.3680645211137038 -0.04520599271263654 0.045400216727461321 -0.025855547753101032 0.10966911757025866 -0.1352480974646133 0.24937243340230811 -0.20352952674272437 -0.14057948956414462 -0.042288091596993198 -0.25108635239725619 0.029639865941611145 0.043053180718118179 -0.045824888156586238 0.024376801651107803 -0.17082094195542796 0.018706010484778927 -0.088641219377690428 -0.02679066384434305 -0.01450607135269669 0.24362030757779143 -0.022733659459915748 0.040230360862159455 -0.10736712848441166 -0.038960786619701752 -0.14810852454063814 0.027077807492509601 0.0022785773715566955 -0.10998170098768664 -0.0095089079756299089 -0.11481952277658958 -0.021655850859549738 -0.013809584987340856 -0.13559724273490528 -0.12986495365659215 -0.030046055848707211 -0.069436233230265723 -0.11420544267996273
leaf_weight=80.926152834086679 3.8367716178763649 37.011895179748535 9.3448334650020097 74.47878560697427 106.06044066156028 399.92834073689301 20.764750610280316 544.82667125761509 22.116668986476725 108.78001749457326 23.929574739624513 91.409700709453318 151.32347592123551 26.311706430395134 152.4297058256343 198.09086363209644 278.50462890317431 63.849866624630522 21.626431227952708 444.33407348429319 60.350599473924376 18.834510025917556 2.4789755729725576 52.154239523806609 7.9474111453746437 476.41703890713325 26.552091052406467 8.3911792776198109 9.5321077328408119 57.773489783867262 48.475894998467993 5.9563406584202303 2.4535936267930074 9.3467459147796053 10.902493331290314 2.752876255544833 29.495106832997408 118.9832393625984 7.3496806465554974 12.870987910544498 39.411253439611755
leaf_count=1068 81 800 1213 125 11696 608 8165 1390 745 1222 691 4009 18452 373 35 1026 35058 48 396 956 2958 4393 173 79 2516 344 1552 291 161 24 1762 466 749 238 4301 1177 1233 4852 332 1243 2236
internal_value=0.0213862 0.045103 0.0843533 0.216247 0.0674706 0.0600735 0.0918202 0.0728254 -0.00738259 0.206262 0.00508274 -0.106455 0.010997 -0.0989582 0.0104228 0.0925186 -0.0736697 -0.0242941 0.0151359 -0.00477635 0.00475195 0.03384 -0.173989 0.312283 0.209793 0.0309986 0.00579143 -0.163558 -0.0546864 0.011578 0.0408534 -0.0553781 -0.134377 -0.0504342 -0.0841646 -0.138174 -0.128605 -0.126392 -0.104885 -0.0541285 -0.111422
internal_weight=3868.32 3267.1 1866.61 201.699 1664.91 1627.9 984.479 854.934 1400.49 129.545 1238.97 601.217 643.419 161.518 1215.04 742.918 392.916 85.9665 1181.71 526.311 504.685 480.11 75.5516 134.58 60.1017 655.399 178.982 208.301 163.309 67.1183 448.404 112.017 11.9857 298.754 20.2492 94.1626 33.3319 127.374 49.2399 31.7055 41.8902
internal_count=119237 68243 56090 3957 52133 51333 23965 14578 12153 9387 8246 50994 27368 3907 7555 2416 44783 793 6241 4310 3914 8006 3114 2720 2595 1931 1587 6211 19362 1237 2370 12162 910 39597 4539 5186 1314 5143 2741 5636 2409
is_linear=0
shrinkage=0.028079


Tree=6
num_leaves=38
num_cat=0
split_feature=10 33 36 10 29 42 2 36 30 6 33 2 3 6 22 32 29 30 2 2 22 41 26 15 38 0 26 15 33 0 0 0 27 22 29 36 0
split_gain=13632.4 8713.94 8468.62 5943 3892.4 3053.08 2678.25 2472.55 2151.34 2052.54 1812.38 1711.61 1582.45 1302.03 1037.2 960.466 883.492 848.899 733.774 719.817 571.375 373.682 290.389 918.226 288.654 229.749 191.996 104.094 92.4981 110.89 83.1632 23.033 9.29742 5.92553 5.03667 2.56569 1.03228
threshold=-0.48379731178283686 1.0504519343376162 -0.10549604892730712 -0.46962140500545496 0.48574565351009374 1.3072748780250552 1.4054441452026369 0.1474053040146828 -0.10332021862268446 0.41909235715866094 1.0226981043815615 -0.41330567002296442 0.22467743605375293 -0.0054560070857405654 -0.98497948050498951 0.58327040076255809 2.2159470319747929 -0.046733034774661057 -1.0477018952369688 -0.41910460591316218 -0.16397149115800855 0.062755044549703612 -0.064710158854722963 1.4301297664642336 -1.1100396513938902 -1.0380331277847288 0.077757373452186598 -0.63921871781349171 1.193207919597626 -1.6714408993721006 -1.6714408993721006 -0.56726717948913563 1.7318763732910158 -0.067695230245590196 0.49876697361469274 -0.23813933134078977 -1.6714408993721006
decision_type=2 2 2 2 2 2 2 2 2 2 2 2 2 2 2 2 2 2 2 2 2 2 2 2 2 2 2 2 2 2 2 2 2 2 2 2 2
left_child=10 2 6 -3 11 7 9 13 16 36 33 19 17 14 26 21 -6 -10 -9 24 -19 -11 27 -24 -4 -16 -5 -15 29 -12 -30 -7 -20 35 -23 -1 -2
right_child=1 3 4 5 8 31 -8 18 12 15 28 -13 -14 22 25 -17 -18 20 32 -21 -22 34 23 -25 -26 -27 -28 -29 30 -31 -32 -33 -34 -35 -36 -37 -38
leaf_value=-0.048694458860469719 -0.027430003364457233 0.28364871814786247 0.093603063522952543 -0.04426206763837872 -0.029535288527515233 -0.22603932995674397 0.20757983606234387 0.016031257928725368 0.34728347470002835 0.10447345775740385 -0.02742951206027475 -0.033099115400807018 -0.019215195820694597 0.033220271995904979 -0.2068763010559066 -0.0473054010656761 0.15059855318168369 0.22308464051580079 -0.15932554879660957 0.19904275559077916 -0.015272095264947079 0.037274472462785847 -0.12823967274801931 0.024304667548151273 -0.024392439129375065 -0.080382913181151941 0.023079710958063639 0.0084306508763600813 -0.19250766005287318 -0.11915528198725403 -0.12443659831965975 -0.10156579573263165 -0.027575919111555117 -0.026257971079404193 0.050275407605634481 -0.023884426531947889 -0.051860035967900862
leaf_weight=175.35295998293441 29.892024237778969 44.377340259496123 116.97326940158382 56.422454445564654 25.362537965876982 43.556858335854486 61.152192639186978 22.066039977275068 121.88225637946744 108.73192008188926 17.289435090759071 71.086084761773236 13.281068409676662 480.89546621257614 25.328065623936709 71.283597046218347 81.798591908649541 120.55209661723347 97.453610108001158 63.670840642414987 7.4578521274379446 161.21236595930532 34.832879991095979 110.66549807315459 15.662981540779581 43.81770016514929 62.874057987122796 192.57164442935027 95.076415383839048 107.52550194709329 111.71351922658505 21.923133572505321 3.9661374844145021 50.328530562110245 433.26591815450229 26.607430383563042 185.88997692882549
leaf_count=6471 205 56 104 299 9335 931 96 59 449 123 677 21713 4405 285 546 3018 20 729 4089 126 2297 794 1682 57 5518 2628 51 605 1064 5404 4182 819 456 18565 124 8637 12646
internal_value=0.0212167 0.0459391 0.087298 -0.0105542 0.167439 -0.0231776 0.0378424 -0.0117338 0.225947 0.0258693 -0.10184 0.0824273 0.269271 0.00316694 -0.0619264 0.0471481 0.108827 0.284717 -0.126474 0.123938 0.209121 0.0571236 0.0185737 -0.0167399 0.0791057 -0.142522 -0.00950902 0.026304 -0.144449 -0.108739 -0.161413 -0.199174 -0.156441 -0.0432653 0.0472615 -0.0464044 -0.0495176
internal_weight=3513.8 2929.91 1689.16 1240.75 637.728 1196.37 1051.43 1130.89 370.334 990.276 583.894 267.393 263.173 1007.41 188.442 774.494 107.161 249.892 123.486 196.307 128.01 703.21 818.965 145.498 132.636 69.1458 119.297 673.467 331.605 124.815 206.79 65.48 101.42 252.289 594.478 201.96 215.782
internal_count=119265 74265 61702 12563 44696 12507 17006 10757 17235 16910 45000 27461 7880 6153 3524 4059 9355 3475 4604 5748 3026 1041 2629 1739 5622 3174 350 890 11327 6081 5246 1750 4545 33673 918 15108 12851
is_linear=0
shrinkage=0.028079


Tree=7
num_leaves=39
num_cat=0
split_feature=24 7 29 31 36 1 32 34 4 8 1 19 38 8 30 32 15 39 32 12 7 33 12 4 1 31 33 42 13 36 7 11 33 13 33 32 0 0
split_gain=10280.9 5664.44 5106.73 4649.73 2491.88 1885.99 1868.83 1865.37 1850.96 1639.66 1068.69 1067.91 950.624 863.181 822.699 706.57 619.537 554.662 484.081 458.063 438.018 380.697 373.216 342.322 335.56 221.186 210.035 178.485 164.481 146.89 106.51 228.774 73.3709 67.5415 49.5005 21.018 11.6661 3.75932
threshold=-2.2474808692932124 -1.6115489602088926 0.81448760628700267 0.56673803925514232 -0.015751294791698452 17.522425651550297 -0.42635338008403773 -1.1644725203514097 1.5095669627189638 0.40576134622097021 230.674430847168 -0.42865328490734095 -0.90097689628601063 -0.36824366450309748 -1.708342373371124 -1.2523679733276365 1.3524488210678103 -0.17227041721343991 -0.55203956365585316 0.19661409407854083 -0.8187820017337798 1.0226981043815615 -1.1179466843605039 2.1312756538391118 -101.96713638305663 1.7828419208526614 1.094342112541199 0.3551167249679566 6.709022283554078 -0.84530159831047047 2.1704531908035283 -1.3306806087493894 1.0226981043815615 5.813582420349122 1.0321201086044314 -0.27677823603153223 1.7415618896484377 -1.6714408993721006
decision_type=2 2 2 2 2 2 2 2 2 2 2 2 2 2 2 2 2 2 2 2 2 2 2 2 2 2 2 2 2 2 2 2 2 2 2 2 2 2
left_child=1 14 7 6 9 -5 13 -2 11 12 21 24 28 18 -1 34 -8 -17 -4 32 29 -6 -7 -19 -9 33 -22 -26 37 -10 31 -12 -11 -21 -14 -29 -28 -3
right_child=2 4 3 5 10 22 16 8 20 19 30 -13 15 -15 -16 17 -18 23 -20 25 26 -23 -24 -25 27 -27 36 35 -30 -31 -32 -33 -34 -35 -36 -37 -38 -39
leaf_value=0.10052466253373833 0.15346063163792936 -0.02156935538982567 0.087069189084610851 -0.03269719415355244 -0.024783820772542407 0.33216600739631791 -0.046805564980155201 0.097060493167718212 0.025699582023166172 -0.024584032103609908 0.018578637552200784 -0.0413649526820851 -0.025217777176122384 -0.040662871235152179 0.021721912271825839 -0.11798460954955889 0.049345729364279542 -0.061984708830810309 0.17238438963046998 -0.046661481893419114 -0.044009878673604716 -0.14481987297861745 0.18742676892526303 0.014158353266386092 -0.030868396121018778 0.019732150365083675 -0.13053137163996967 0.050763952134663809 -0.13197677435374214 -0.043596836932549357 0.023264910456746529 -0.10466912942844943 -0.13608732681775543 -0.10410842481677243 -0.13251495162155943 0.034075427621123214 -0.010154876802455427 -0.058824618442324235
leaf_weight=203.4841364329186 79.303124322381336 14.501053698564645 122.68565767857945 15.274890113505533 26.088286544429138 82.492810376075795 74.160683893773239 114.34811632055789 91.969817409408279 8.7073587154736725 21.418780868290924 102.00769356545061 8.4268179757054877 19.936994066403713 217.4093465255246 20.696696552622598 143.61340859497432 42.6201804044249 151.20424870692659 77.703476928465534 211.50776070507709 297.5031674883212 67.278288271452766 658.09191182409995 19.291488926974125 24.169112719246186 23.154387592046991 432.62717542937025 37.137473773211241 24.507303821912501 31.27296793484129 14.708957053080665 122.28427916488727 30.32295305992011 25.359953448292799 154.2337793597253 2.021025533322244 71.969145095848944
leaf_count=105 1110 376 1024 3398 5396 114 10107 277 147 1032 16 18759 336 4244 257 839 83 2202 243 1986 34190 9398 514 2170 3237 8 1831 424 568 5278 3 569 2473 1365 578 1149 328 2821
internal_value=0.0157941 -0.0295684 0.0616157 0.123373 -0.0545896 0.250225 0.0794054 0.0277792 0.0183763 -0.0332281 -0.11517 0.0413575 -0.0144788 0.124723 0.0609199 -0.00233656 0.0161312 0.00409054 0.13753 -0.0936836 -0.0348919 -0.135928 0.279264 0.00891559 0.0533768 -0.0522027 -0.0562817 0.0440432 -0.0842581 0.00935281 -0.0118535 -0.0410196 -0.130419 -0.0685347 -0.115248 0.0468666 -0.12544 -0.0548109
internal_weight=3885.49 1953.88 1931.62 676.647 1532.98 165.046 511.601 1254.97 1175.67 1141.99 390.992 822.508 878.803 293.827 420.893 755.196 217.774 721.409 273.89 263.187 353.16 323.591 149.771 700.712 720.501 132.196 236.683 606.152 123.608 116.477 67.4007 36.1277 130.992 108.026 33.7868 586.861 25.1754 86.4702
internal_count=118955 32498 86457 19727 32136 4026 15701 66730 65620 16754 15382 23846 9890 5511 362 6125 10190 5211 1267 6864 41774 14794 628 4372 5087 3359 36349 4810 3765 5425 588 585 3505 3351 914 1573 2159 3197
is_linear=0
shrinkage=0.028079


Tree=8
num_leaves=37
num_cat=0
split_feature=13 22 22 10 10 24 21 0 25 12 36 19 23 31 9 25 24 13 24 13 10 8 6 6 21 0 39 13 6 0 13 0 0 6 31 26
split_gain=15741 7629.45 4490.57 3491.16 3334.31 2935.38 2421.74 1950.95 1841.85 1263.86 1132.66 1134.52 813.297 688.175 656.163 612.852 764.926 568.466 508.278 506.277 364.711 351.19 507.969 273.571 253.911 177.705 143.307 102.354 86.1914 48.9636 44.9702 52.0724 39.1695 39.0212 38.0738 23.4073
threshold=5.7814350128173837 -0.043107166886329644 -0.017027218826115128 1.6199235916137698 0.087840944528579726 -1.8306882977485655 -5.4985787868499747 0.280384510755539 -0.13933636248111722 0.61369630694389354 1.2371823787689211 -1.1521440148353574 -257.61404418945307 -0.99693414568901051 -0.051278229802846902 1.9088444113731386 -0.880426526069641 5.3987920284271249 -1.4630775451660154 6.709022283554078 2.8396128416061406 0.54602757096290599 -1.6836860179901121 -0.074832595884799943 -0.18084058910608289 -1.6714408993721006 0.038701908662915237 5.3987920284271249 -1.0267310142517088 -1.6714408993721006 5.447308063507081 -1.6714408993721006 -1.5803001523017881 0.41909235715866094 1.7828419208526614 0.055362964048981674
decision_type=2 2 2 2 2 2 2 2 2 2 2 2 2 2 2 2 2 2 2 2 2 2 2 2 2 2 2 2 2 2 2 2 2 2 2 2
left_child=1 3 15 8 29 20 -6 13 14 12 11 -5 -8 -7 24 16 -3 -13 -9 35 27 23 -23 -21 33 -11 28 -4 -19 -2 -10 -32 -29 34 -1 -14
right_child=4 2 5 10 6 7 9 18 30 25 -12 17 19 -15 -16 -17 -18 26 -20 21 -22 22 -24 -25 -26 -27 -28 32 -30 -31 31 -33 -34 -35 -36 -37
leaf_value=-0.021762103411988719 -0.14886091791646211 -0.028505228703615344 -0.026427421285438072 0.10164828268209233 -0.18675875528460004 0.089682259184168611 -0.11984862578594034 0.19131508320637886 -0.044617144068045879 -0.16667883695124891 0.17437589541667209 -0.041753009916312839 -0.10449535633667795 -0.027795487085355286 -0.046913294695870904 0.30926277115793249 0.20227363796550135 0.026074622737409653 -0.015137551997248788 -0.028194376924109005 0.025386090262698682 0.0071379025466266847 -0.11760878271636584 0.02126475921571826 -0.038656114856540087 -0.042263609621023518 0.052098817013630422 -0.015140462389014375 -0.034955382509224128 -0.10730048811248823 -0.023240337715899496 -0.093691305669349717 -0.11231707063066525 0.046600047587969276 0.028236817609570652 -0.020802184100132466
leaf_weight=8.7785501063335669 126.96878539666068 10.436876953230238 37.986909974366426 342.00893385050585 61.181753265685984 120.51838938740548 38.247881673218217 210.61836123350076 332.9758508601808 37.200074623862747 71.928342545637861 59.404100284620654 27.001163981447462 52.468807911791373 74.990224774635863 88.581774001184385 131.76349583838601 53.86818491644226 8.7139236700022575 96.795217716658954 57.251673979335465 65.734561930992641 33.919792842934839 587.38184983785322 26.021104584389832 19.530062694015214 439.25963053229498 6.546058758627626 18.679110172874061 249.05515966552775 17.786656277196016 37.6989306526375 24.88994923827704 424.19695766497171 59.759745270945132 7.6426442288502576
leaf_count=1501 1571 3427 10766 62 831 993 791 2810 37893 555 108 1936 664 19603 5828 459 409 46 4518 688 147 190 801 807 3210 2501 152 112 841 9339 194 1854 1843 118 2 1329
internal_value=0.0243573 0.0632453 0.139031 0.0339417 -0.0537906 0.0909602 -0.0259628 0.128317 -0.00356343 -0.0137502 0.0710776 0.0615783 -0.00469812 0.0543778 0.0274319 0.240827 0.184752 0.0365735 0.182882 0.00172925 -0.0254454 0.00676659 -0.0406154 0.0140361 0.0386979 -0.133843 0.0461395 -0.0657434 0.00854702 -0.123988 -0.0505582 -0.0765962 -0.0989329 0.0433047 0.0203087 -0.0930586
internal_weight=4067.79 2717.13 749.776 1967.36 1350.66 518.994 974.635 392.319 982.208 913.453 985.148 913.22 856.723 172.987 593.747 230.782 142.2 571.211 219.332 818.475 126.675 783.831 99.6544 684.177 518.756 56.7301 511.807 69.4229 72.5473 376.024 388.461 55.4856 31.436 492.735 68.5383 34.6438
internal_count=118899 98832 45087 53745 20067 40792 9157 27924 50600 8326 3145 3037 5270 20596 10659 4295 3836 2975 7328 4479 12868 2486 991 1495 4831 3056 1039 12721 887 10910 39941 2048 1955 1621 1503 1993
is_linear=0
shrinkage=0.028079


Tree=9
num_leaves=34
num_cat=0
split_feature=10 13 19 29 15 39 29 21 35 5 29 3 10 1 33 29 37 29 23 3 6 4 10 0 4 13 3 0 2 35 12 33 37
split_gain=11185.5 7329.37 5319.16 4159.84 4006.43 3963.65 1659.28 1358.19 1308.57 981.36 915.726 850.706 817.357 780.741 770.842 678.594 655.133 486.056 377.238 363.13 352.991 299.701 446.978 285.544 213.791 146.603 100.751 98.7917 35.9625 125.946 29.147 28.1703 8.28478
threshold=-0.76415035128593434 5.813582420349122 0.33717805147171026 0.48574565351009374 -2.2891300916671748 0.010747294407337906 1.0600627064704897 -0.27475148439407343 -0.20302651077508924 -0.75243884325027455 -0.87101897597312916 0.34815016388893133 -0.068308092653751359 -1.2429167032241819 1.0226981043815615 0.71074599027633678 -0.29578298330307001 1.788328289985657 -319.91528320312494 -0.20057358592748639 -0.64459991455078114 2.7838650941848759 2.4466919898986821 -0.75181627273559559 3.1649583578109746 7.1509323120117196 -0.394093707203865 -1.3584001064300535 -1.0477018952369688 4.3920500278472909 2.4826290607452397 1.0226981043815615 -0.29411149024963373
decision_type=2 2 2 2 2 2 2 2 2 2 2 2 2 2 2 2 2 2 2 2 2 2 2 2 2 2 2 2 2 2 2 2 2
left_child=14 2 3 8 12 13 7 11 -2 10 19 21 -3 -5 -1 -9 -4 24 -11 -10 -15 22 -6 -20 -7 -23 31 -8 -17 -30 -16 -18 -19
right_child=1 4 16 5 6 17 27 15 9 18 -12 -13 -14 20 30 28 26 32 23 -21 -22 25 -24 -25 -26 -27 -28 -29 29 -31 -32 -33 -34
leaf_value=-0.041851358982620733 -0.04075949464144777 0.10494947628708579 0.024439413596734096 -0.022265586082895108 -0.11752727403417577 -0.029842327816729859 -0.16822382118107027 -0.11267964039651508 0.14653485341767983 0.091012820430434696 -0.034197640584272694 -0.13118043718794573 0.022941481554011708 0.2655057092464933 -0.11274113503307416 0.021282216360303616 -0.009918533949635544 0.11034697652720285 -0.031543772168931013 0.076410116448259652 0.17986038779992125 0.024121594324812784 0.022100115218124172 0.041494915020749028 0.052650107371184023 -0.0087918720677216452 -0.044402473368227099 -0.081116929146009001 -0.071752819281924618 0.019706299413095773 -0.021763739751520062 -0.10999418841691845 0.079313067114182345
leaf_weight=210.27590446913382 96.843745265709003 198.45558752177749 120.97268892911961 10.694973250036126 28.546356015620404 24.488122660550289 64.301308943482582 162.23066275505698 173.08644132677 119.01028951921035 31.051140673225746 30.628437634150032 189.21034129161308 102.59486977610504 354.05051628767978 23.329408709483687 4.086284147109839 213.85769456613343 39.963962250330951 133.7702923292527 297.95333966350881 324.31303916932666 32.216783602867508 602.16814965353115 144.65946200006874 152.49079535991768 195.75848015077645 41.206441101006931 12.218699998571536 23.840531794005074 6.8913419922464518 25.793727021256927 129.08143859484699
leaf_count=23237 15963 63 618 3040 643 6535 723 6349 620 31 4134 1258 289 190 9344 3 2253 99 1163 1477 2808 463 26 12028 38 447 22478 1447 561 27 308 307 355
internal_value=0.028261 0.045922 0.0741719 0.0908066 -0.008489 0.135476 -0.0410795 -0.0263962 0.0556842 0.0644026 0.104058 -0.0030809 0.0661264 0.200065 -0.0867324 -0.0841017 -0.0273025 0.0814533 0.0459482 0.118534 0.206304 0.00593359 -0.0492361 0.0366355 0.0399425 0.0136223 -0.0549362 -0.141893 -0.00213165 -0.018342 -0.111486 -0.10107 0.100626
internal_weight=4320.04 3748.82 2465.84 2119.22 1282.99 923.33 895.322 789.815 1195.89 1099.05 337.908 568.195 387.666 411.243 571.218 221.619 346.611 512.087 761.142 306.857 400.548 537.567 60.7631 642.132 169.148 476.804 225.638 105.508 59.3886 36.0592 360.942 29.88 342.939
internal_count=119325 86436 74137 48481 12299 13065 11947 9777 35416 19453 6231 2837 352 6038 32889 6940 25656 7027 13222 2097 2998 1579 669 13191 6573 910 25038 2170 591 588 9652 2560 454
is_linear=0
shrinkage=0.028079


Tree=10
num_leaves=38
num_cat=0
split_feature=10 33 35 24 8 0 30 6 16 34 33 10 22 38 38 34 21 26 16 40 31 13 26 26 24 21 21 0 38 35 38 16 12 5 33 22 36
split_gain=11130.4 6129.57 2089.29 1630.22 1302.95 1162.24 986.626 842.536 917.721 821.351 799.677 755.301 723.923 702.839 552.682 543.617 488.951 917.564 488.269 432.664 213.123 242.645 197.137 190.916 791.356 146.896 115.417 102.867 82.5161 76.6441 68.7688 125.513 25.567 23.5862 12.799 3.98309 0.616846
threshold=-0.27188898622989649 1.0764348506927492 -0.29015351831912989 -1.5223387479782102 0.54602757096290599 -0.52660387754440297 -0.54158610105514515 -0.074832595884799943 0.71866336464881908 -0.49625705182552332 1.0226981043815615 -0.25568720698356623 -0.24991919100284574 -0.19831959903240201 0.089698106050491347 -0.53152790665626515 -5.4985787868499747 -0.30566363036632532 -1.5189831256866453 0.56814667582511913 -0.11838788539171217 4.0447192192077646 -0.078246839344501481 -0.42272527515888209 -3.5394116640090938 -3.2781293392181392 -1.6413850784301756 -1.6714408993721006 -0.005807633511722087 0.1409396901726723 -1.3129197955131529 0.73256742954254161 1.9408859014511111 -0.87180221080780018 1.0226981043815615 -0.067695230245590196 -0.23813933134078977
decision_type=2 2 2 2 2 2 2 2 2 2 2 2 2 2 2 2 2 2 2 2 2 2 2 2 2 2 2 2 2 2 2 2 2 2 2 2 2
left_child=10 2 11 5 7 12 -5 8 -3 15 35 -2 -4 -8 28 -6 17 -9 29 -20 25 -22 -16 33 -25 -14 -26 -11 -15 -7 -10 -32 -12 -18 -21 36 -1
right_child=1 4 3 6 9 18 13 16 30 27 32 -13 20 14 22 -17 23 -19 19 34 21 -23 -24 24 26 -27 -28 -29 -30 -31 31 -33 -34 -35 -36 -37 -38
leaf_value=-0.046028845001810419 0.043453879804517717 -0.1084023686905678 0.11225492937713571 -0.031249142367673639 -0.10413743229143239 0.051516518850691757 -0.032017309074921112 0.025621185182440599 0.026034663366350443 -0.16146718153070938 -0.10623990823027479 -0.043619310438155409 0.083211321182994041 0.10268873880990524 0.081769109901925485 0.024025883215602443 0.039491163023425584 -0.14966366377626453 0.026376647855066097 -0.039647996889159841 0.046676465821012439 -0.029990944580865563 -0.02072677180657825 -0.11238312623282719 0.023080534708155746 0.044500089606849952 -0.012082914711918176 -0.0725708684734193 0.15182330757525955 0.014413769782787971 0.020375770830377612 -0.070389557334790936 -0.035112625557676927 0.024641794513315166 -0.079171454734757743 -0.025606700739125611 -0.023338625618803815
leaf_weight=186.86029616493033 138.40692097699502 94.669004311494064 318.77318206004566 32.725488141761161 30.871626144537004 289.18993632984348 20.15753448929172 52.288874804973602 65.888487096643075 51.563889468408888 435.75578629381198 162.56219139738823 254.65646900277352 111.22955144633306 126.58861273538787 75.101513891422655 212.24739335339109 32.750209730525967 114.69937924551778 68.239988022483885 145.27876460633706 35.732029501523357 13.598583260492886 32.909825779177481 399.99616898177192 157.2406912004808 84.815338350803358 38.131522896233946 342.73008968349313 60.044834816537332 23.110184894350823 12.953175293252569 13.488060501666039 250.91224213966416 18.497275316622108 50.221753024088684 25.969940798357129
leaf_count=7106 119 2188 255 7578 980 227 1660 12 61 527 11515 21114 18 2874 29 67 91 500 414 12611 218 1048 4186 1056 298 702 1732 2314 2599 588 10 468 874 277 912 21592 10365
internal_value=0.0194201 0.0382221 0.0656446 0.0754865 -0.00721062 0.0585327 0.112687 0.00339075 -0.0489167 -0.0731999 -0.0820255 -0.00349338 0.0779115 0.120641 0.126157 -0.017753 0.0133156 -0.0485842 0.0258297 -0.008817 0.0582676 0.0309472 0.0712755 0.0190123 0.00712636 0.0695005 0.0168379 -0.132244 0.141661 0.0455774 0.00998563 -0.0187671 -0.10472 0.031971 -0.0537417 -0.0414268 -0.0441546
internal_weight=4580.86 3868.56 2410.35 2109.38 1458.21 1462.35 647.03 1262.54 196.621 195.669 712.296 300.969 911.681 614.304 594.147 105.973 1065.92 85.0391 550.671 201.437 592.908 181.011 140.187 980.881 517.721 411.897 484.812 89.6954 453.96 349.235 101.952 36.0634 449.244 463.16 86.7373 263.052 212.83
internal_count=119185 67733 57152 35919 10581 16993 18926 6693 2727 3888 51452 21233 2241 11348 9688 1047 3966 512 14752 13937 1986 1266 4215 3454 3086 720 2030 2841 5473 815 539 478 12389 368 13523 39063 17471
is_linear=0
shrinkage=0.028079


Tree=11
num_leaves=37
num_cat=0
split_feature=13 40 10 10 21 27 27 36 35 27 11 27 31 29 31 9 0 21 5 38 27 31 5 17 31 38 33 0 5 10 2 0 0 34 26 36
split_gain=9161.07 5027.09 3934.94 2677.12 1792.94 1647.4 1606.73 984.336 1495.83 762.756 610.598 814.16 515.001 443.303 401.018 379.113 927.112 303.567 249.865 206.275 203.715 184.887 158.673 115.807 332.397 354.881 80.042 52.5345 43.5519 99.9862 39.4381 226.224 34.3146 5.85751 4.40675 2.42009
threshold=5.813582420349122 6.3059740066528329 -0.27188898622989649 -0.28808005154132837 -0.26897011697292322 -0.48152105510234827 0.33616426587104803 -0.015751294791698452 1.385684669017792 0.27131344377994543 -1.3306806087493894 1.8956081271171572 -0.076715510338544832 0.81448760628700267 -0.34614408016204828 0.019311611540615562 0.32212337851524359 -1.483779728412628 0.21604911237955096 0.78287461400032055 2.1230286359786992 1.7828419208526614 0.78794357180595409 0.029721460305154327 -0.87906286120414723 6.3380606174469003 1.0226981043815615 1.0560362339019778 -0.12010074406862258 -0.27188898622989649 -0.87830415368080128 0.33985322713851934 -1.5803001523017881 -1.3545617461204527 0.040208559483289726 0.10955107957124711
decision_type=2 2 2 2 2 2 2 2 2 2 2 2 2 2 2 2 2 2 2 2 2 2 2 2 2 2 2 2 2 2 2 2 2 2 2 2
left_child=1 2 26 -2 5 13 9 8 15 18 -9 -12 17 14 -4 16 -5 -7 21 -19 -14 -6 -20 24 -17 -26 -1 -10 29 -25 -18 -32 -28 -30 -34 -8
right_child=3 -3 4 7 6 12 35 10 27 -11 11 -13 20 -15 -16 23 30 19 22 -21 -22 -23 -24 28 25 -27 32 -29 33 -31 31 -33 34 -35 -36 -37
leaf_value=-0.040553700561263561 -0.098579091790125514 0.22411511683924606 0.094240097995993505 -0.11450564240954751 -0.040757272474284081 0.079870210943267711 -0.0470987002047141 0.016503624024965691 -0.14286919004682666 0.11301734085824426 -0.10948991027966978 0.021061165157255059 -0.036338246347739085 0.14589823327418119 -0.033752700982754208 0.025880149100907843 0.027906112569616223 -0.029723081838033835 0.042686786770007118 0.047650660393404508 0.030374978761714095 0.027747660733446495 -0.033520487960641963 0.028072960453295062 -0.10890444724499491 0.012522981794165222 -0.020678841393181619 -0.032598483387117211 0.030558238750303272 -0.02287259145107115 0.027699948780660802 -0.071028798582404545 -0.091192930232323471 0.021612961874746331 -0.013434136199003483 -0.026132543068720031
leaf_weight=255.17005765705835 379.47203284897842 117.57383714124444 116.5064007412293 57.13509508378047 53.180325585679384 394.83926484000403 159.94586125737987 60.618162207916612 48.797448445708142 102.78186251514126 169.20590927365993 45.088946134390426 53.557006673712749 263.38323751743883 18.894007926137419 111.28627480229625 66.379099162411876 24.949500191491097 541.89897866308456 281.4371233957354 80.690812760789413 56.260995357530192 17.095607456285506 61.587832361459732 31.032836866012076 34.608084040393805 12.748032214294652 9.2892757744120882 219.45709585110308 46.932608502400399 55.56215961324051 18.220984549901914 48.210778735723579 253.3621968494117 3.4896960217156439 39.182431381137576
leaf_count=39035 9327 985 431 1102 10922 384 7831 191 1240 112 4488 309 5835 543 1564 98 15 4356 3322 62 153 23 3438 2 821 95 230 369 23 337 8 880 1395 401 1190 17686
internal_value=0.0176319 0.050106 0.0413568 -0.033794 0.0547039 0.0770896 0.0258543 -0.0142521 -0.00132495 0.0441633 -0.0606073 -0.0822392 0.0538575 0.123857 0.0755403 0.00752381 -0.0264883 0.0634099 0.0324318 0.0407867 0.00324251 -0.00602262 0.0399405 0.0165475 -0.00324387 -0.0501963 -0.049844 -0.131013 0.0225353 0.0059855 0.0134097 -0.00101182 -0.0785165 0.0261799 -0.0883252 -0.0440786
internal_weight=4309.83 2641.8 2524.22 1668.04 2204.6 1234.26 970.346 1288.56 1013.65 771.218 274.913 214.295 835.474 398.784 135.4 955.564 197.297 701.226 668.436 306.387 134.248 109.441 558.995 758.267 176.927 65.6409 319.619 58.0867 581.34 108.52 140.162 73.7831 64.4485 472.819 51.7005 199.128
internal_count=119203 99497 98512 19706 56662 13328 43334 10379 5391 17817 4988 4797 10790 2538 1995 3782 2005 4802 17705 4418 5988 10945 6760 1777 1014 916 41850 1609 763 339 903 888 2815 424 2585 25517
is_linear=0
shrinkage=0.028079


Tree=12
num_leaves=32
num_cat=0
split_feature=24 36 2 38 23 25 22 21 24 23 36 34 17 17 36 38 24 2 38 3 25 23 23 24 24 1 28 6 0 21 12
split_gain=5570.72 5422.08 3461.11 2469.91 1725.63 2300.24 1520.64 1197.25 1052 908.578 707.587 694.112 638.607 609.479 589.904 494.392 470.518 337.432 332.659 297.942 232.593 179.795 134.723 131.797 187.771 52.1046 48.9306 39.7217 25.1069 24.0264 12.0613
threshold=-2.2474808692932124 -2.1803524494171138 -0.92951461672782887 -0.19831959903240201 -518.03561401367176 0.56028908491134655 -0.022279124706983563 0.076139852404594435 -0.880426526069641 6.3836102485656747 -0.27496430277824396 -0.44426578283309931 0.52462103962898265 -0.087202917784452424 -0.82170650362968434 0.10024700313806535 -2.4218430519103999 -1.0477018952369688 2.5826518535614018 -0.16460936516523358 0.54886609315872203 3.4422613382339482 -0.48256678879261011 -4.6893608570098868 -3.5394116640090938 8.9419384002685565 0.33570945262908941 -0.074832595884799943 -2.4293484687805171 -2.091263890266418 0.69516205787658703
decision_type=2 2 2 2 2 2 2 2 2 2 2 2 2 2 2 2 2 2 2 2 2 2 2 2 2 2 2 2 2 2 2
left_child=1 2 -1 -2 -5 8 7 10 11 21 14 12 26 15 30 -13 -12 -8 -11 27 -15 23 -14 -4 -25 -18 -6 -16 -7 -19 -3
right_child=3 6 9 4 5 28 17 -9 -10 18 16 13 22 20 19 -17 25 29 -20 -21 -22 -23 -24 24 -26 -27 -28 -29 -30 -31 -32
leaf_value=0.24232761320517268 -0.046443064310623679 -0.080974361109024867 0.028120545199677455 0.19448101766652698 0.078451291068283302 -0.081603776959963459 0.0010256646530401722 -0.09251147728249598 0.1224763235170114 -0.069416633979522913 -0.085143701199803204 -0.036256915374441652 -0.033192848292480585 -0.049128986538814333 0.0044194151701358294 0.052553804109909952 -0.036014347889342331 -0.13498968090701358 0.010401310742685398 -0.051806976818316079 0.026475676094976978 0.045964117037275348 0.045380516386530158 0.018728380753310726 -0.057758171692563781 0.024080814241827488 0.11584859315372821 0.024737707215287591 -0.041989529503746521 -0.093889344721690429 -0.040367769259279304
leaf_weight=52.064661184354918 187.55204696091823 39.761533637123648 335.51787760250591 64.733180189621635 130.77356247694115 23.637803425983293 25.59518942219438 189.54136986283993 199.59198359225411 95.793388689286076 142.12483822167269 47.283702829503454 13.420364685181992 71.009985843120376 101.55324597266736 860.87000920221908 7.4896927493100511 65.704262133076554 65.519528870972863 43.018234494127682 47.959382830478717 438.20568171076593 200.20755306456704 65.532227121977485 31.358694028080208 43.81562130045495 206.73913687316235 343.59799913293682 121.02714816926164 288.55990661514807 40.857212569651892
leaf_count=66 18777 952 175 82 2596 199 115 5053 3400 2774 5120 8946 3566 11978 425 6137 1120 937 102 1312 106 421 219 72 912 304 491 370 30333 11504 656
internal_value=0.0170093 -0.0123328 0.0341628 0.0495301 0.0587293 0.0534155 -0.0501612 -0.0307701 0.062193 0.0219761 -0.01466 0.0540225 0.0794875 0.039878 0.00132524 0.047669 -0.0599492 -0.0972 -0.0379819 0.013211 -0.0188898 0.0333166 0.0394798 0.0199306 -0.00841234 0.0118131 0.103392 0.0202535 -0.0521892 -0.10417 -0.0656145
internal_weight=4590.42 2415.61 1083.99 2174.81 1987.25 1922.52 1331.62 951.76 1777.86 1031.93 762.218 1578.26 551.141 1027.12 568.788 908.154 193.43 379.859 161.313 488.169 118.969 870.614 213.628 432.409 96.8909 51.3053 337.513 445.151 144.665 354.264 80.6187
internal_count=119220 32390 4522 86830 68053 67971 27868 15312 37439 4456 10259 34039 6872 27167 3715 15083 6544 12556 2876 2107 12084 1580 3785 1159 984 1424 3087 795 30532 12441 1608
is_linear=0
shrinkage=0.028079


Tree=13
num_leaves=41
num_cat=0
split_feature=13 17 10 7 36 21 13 38 41 1 16 23 1 41 13 39 39 35 24 3 39 31 13 23 40 3 39 13 1 18 23 21 21 40 21 20 18 3 0 0
split_gain=8919.92 5099.64 4397.86 3363.01 2068.42 2011.32 1391.38 1200.8 1350.97 995.061 975.966 892.401 805.827 724.311 1357.26 627.113 485.966 371.019 353.674 421.961 243.326 196.22 129.496 211.601 97.6552 94.922 86.442 30.989 30.2292 38.1588 29.9389 53.9208 86.4448 26.4087 47.023 35.8793 16.0532 14.874 8.31325 0.684481
threshold=5.813582420349122 0.96252074837684642 -0.27188898622989649 -1.6115489602088926 -0.10549604892730712 -1.6413850784301756 4.851072072982789 0.43410955369472509 1.1032565236091616 35.015621185302741 0.4189580380916596 75.080371856689467 -1.2429167032241819 1.5112492442131045 17.262866973876957 0.30860209465026861 0.059936106204986579 -0.29015351831912989 -3.163800716400146 -7.294480323791503 0.035729466006159789 1.7828419208526614 6.709022283554078 -980.04577636718739 1.6104369163513186 -0.394093707203865 -0.31033034622669214 5.3987920284271249 1.0860313177108767 0.060771368443965919 -2.9604121446609493 -1.8373710513114927 -2.091263890266418 0.52767840027809154 -1.483779728412628 -0.67287802696228016 0.59891602396965038 -0.40355141460895533 -1.6714408993721006 -1.6714408993721006
decision_type=2 2 2 2 2 2 2 2 2 2 2 2 2 2 2 2 2 2 2 2 2 2 2 2 2 2 2 2 2 2 2 2 2 2 2 2 2 2 2 2
left_child=1 2 25 9 7 13 12 8 -4 33 -3 22 -6 18 36 -13 28 -14 19 -5 -19 37 23 -7 -10 27 -26 -1 29 -9 -20 32 -32 -2 -35 -36 -15 39 -24 -8
right_child=3 10 4 5 6 11 21 16 24 -11 -12 15 17 14 -16 -17 -18 20 30 -21 -22 -23 38 -25 26 -27 -28 -29 -30 -31 31 -33 -34 34 35 -37 -38 -39 -40 -41
leaf_value=-0.016408702835027759 0.028355350050231331 -0.031811165381904774 -0.04680127239569179 0.024304272971911973 -0.024230175470239288 0.013728514868471266 -0.012399213427153246 0.039728482175778158 0.044815160910689891 0.11838331154409897 0.20133501734042425 -0.080701246898450082 -0.019633620882141895 -0.094439080811667339 0.028969972803004181 0.016534969931031585 0.0774559559389085 0.12236263887646308 0.026879650106148081 -0.10077449843474569 0.072918979855775792 0.026482451663525235 -0.10669595779154305 -0.072536150682924405 0.025446591807322897 -0.040461380538715688 -0.037927294144899114 -0.088694195298675338 0.045464097583225734 0.015199345506592174 -0.027595805782484429 0.028343592568212134 0.02359003871132213 0.026236635583111258 0.014360533553066032 -0.027091870344898659 -0.17375965724477593 -0.024893550330077868 -0.081147638941024447 -0.076113908424807419
leaf_weight=9.2916060457937402 91.140098139585461 13.139415017620193 214.85415977600496 36.258204683661461 33.660679565218743 24.399018076510401 3.5551204548683009 135.74851485068211 343.55739476630697 128.66641595768488 201.58221551493625 74.619633171867463 14.642374137940349 55.937550734932302 75.726936286111595 138.43222334585153 531.65638008824317 609.66252386785345 294.09739029749471 36.861179595405702 138.6936570208054 53.483679525408661 217.55271690624068 124.3881495744572 47.405206844909117 259.33909269917058 17.145899799652398 55.065774736896856 416.53867914748844 98.937419213063549 47.309128042965312 68.625215312786167 42.04468077592901 44.682029724121094 22.268178713857196 31.303966764251527 23.826247441931628 26.957055778155336 221.61779084274895 10.942244568286695
leaf_count=3724 10 2313 12101 2 17874 32 38 152 600 41 721 1478 6367 395 19 218 300 8441 218 545 3144 37 1160 7843 61 36086 1417 662 149 466 296 30 30 1 85 249 350 4180 6733 492
internal_value=0.0285761 0.0564004 0.0467139 -0.0214771 0.0584515 -0.0392721 0.0933835 0.0408875 0.00917966 0.0604101 0.186472 -0.0692134 0.105387 -0.00366545 -0.0554168 -0.0191177 0.0574222 0.111287 0.0122244 -0.0422812 0.114019 -0.0076881 -0.0868935 -0.0584101 0.0389664 -0.0502006 0.00640433 -0.0810768 0.0403665 0.0301838 0.02159 0.0109657 -0.00354925 0.0179969 0.00705052 -0.0102159 -0.13111 -0.0490621 -0.095393 -0.0700867
internal_weight=5035.62 3235.86 3021.14 1799.76 2697.44 1481.7 891.597 1805.84 622.963 318.061 214.722 801.01 796.659 680.687 155.491 213.052 1182.88 762.999 525.196 73.1194 748.356 94.9381 587.958 148.787 408.109 323.696 64.5511 64.3574 651.225 234.686 452.076 157.979 89.3538 189.394 98.2542 53.5721 79.7638 41.4544 439.171 14.4974
internal_count=119060 99325 96291 19735 55819 19349 40573 15246 14179 386 3034 17464 35826 1885 764 1696 1067 17952 1121 547 11585 4747 15768 7875 2078 40472 1478 4386 767 618 574 356 326 345 335 334 745 4710 7893 530
is_linear=0
shrinkage=0.028079


Tree=14
num_leaves=35
num_cat=0
split_feature=10 4 29 1 1 19 39 14 5 7 8 19 36 24 19 11 39 36 31 31 33 7 9 13 29 4 33 16 11 7 27 13 33 33
split_gain=6995.38 5174.76 2879.94 2358.11 1651.38 1432.05 1351.19 950.833 937.482 808.391 887.314 837.56 678.237 585.5 580.252 527.079 473.302 387.409 366.643 335.705 269.852 225.99 221.243 93.2073 84.2655 80.2607 78.9078 70.5733 40.9968 14.8943 56.7841 12.7604 11.4572 5.12881
threshold=-0.76415035128593434 2.9102497100830083 0.48574565351009374 17.522425651550297 -0.95261722803115834 0.038973540067672736 0.035729466006159789 -1.7202444076538084 0.22944813966751101 1.9709374904632571 0.26733939349651342 -0.81969884037971485 0.4775069952011109 -1.1959344148635862 -1.7708201408386228 -1.4914270043373106 0.031691441312432296 -0.48984572291374201 0.1830939128994942 1.7828419208526614 1.0226981043815615 2.468266606330872 -0.094937141984701143 6.709022283554078 -0.66735327243804921 2.1312756538391118 1.0226981043815615 0.52185699343681347 0.18850816786289218 1.7104611992836001 -5.3707842826843253 5.6968090534210214 1.0226981043815615 1.0880654454231264
decision_type=2 2 2 2 2 2 2 2 2 2 2 2 2 2 2 2 2 2 2 2 2 2 2 2 2 2 2 2 2 2 2 2 2 2
left_child=20 2 4 5 21 7 14 33 12 10 11 28 16 17 -5 -16 -6 -9 32 23 -1 26 25 -12 -18 -20 -2 -8 29 30 -3 -13 -10 -4
right_child=1 9 3 6 8 -7 27 13 18 -11 19 31 -14 -15 15 -17 24 -19 22 -21 -22 -23 -24 -25 -26 -27 -28 -29 -30 -31 -32 -33 -34 -35
leaf_value=-0.039253636465789513 -0.038151981946638991 0.027747090013191339 -0.015804550260495799 0.17668068657463151 -0.054718568494016649 -0.045477713328291917 -0.039887401683217763 0.057212694817810827 -0.036664965025000142 -0.1156683793324596 -0.035494745960521622 -0.026705070004226207 0.089483893692937563 0.10715132874056185 0.116298753335174 -0.033702711083466882 0.046515482308057715 -0.046686381294942375 -0.035209099088236488 0.0037648751298525068 -0.082247631270641511 0.020489002367821068 -0.055544054421276905 -0.10346900369098082 0.019457244743781195 0.025418898482327864 -0.078103917451187416 0.024112285635623947 -0.0015275122887483232 0.02909707353995869 -0.013903144472968448 -0.082302325321383679 -0.072475308641293104 -0.088638583010133207
leaf_weight=190.43822112621274 129.61502509535057 66.500785160016676 4.6465479612234075 225.06070084561361 38.049214595666854 104.21752936890698 9.5644867313094419 596.49962312773278 59.705182616715319 80.705385439476231 30.334728216970689 13.26894310917123 244.48534825793467 219.74279607995413 206.32086685541435 16.966184310847893 426.8722975430137 24.250084186875029 12.091745470694148 34.81393293561996 411.68167063833971 32.030706433419255 26.181249456043588 117.39686399803031 134.98386005780776 227.24764811679779 78.93943889910588 65.711914618441369 59.706853243129444 170.93401889735833 33.890672197321692 70.473605848004809 24.990535930526676 23.746513504258473
leaf_count=23506 22759 31 488 43 3290 13775 885 231 10042 834 3208 1682 1910 2902 142 2447 863 4184 2274 54 9521 32 3173 2266 1008 683 1951 305 269 30 514 2902 750 446
internal_value=0.0187376 0.0335364 0.0496852 0.0768529 0.0210988 0.0503538 0.124683 0.0621409 0.034619 -0.0360721 -0.0240081 -0.000966955 0.0505184 0.06772 0.142893 0.104171 0.0337235 0.0526415 -0.00397251 -0.0742436 -0.0693041 -0.0450454 0.0124624 -0.091916 0.0403591 0.0213728 -0.0554746 0.0130857 0.019402 0.0239243 0.0136975 -0.0764303 -0.0522987 -0.0825432
internal_weight=4212.07 3609.95 2931.92 1496.73 1435.19 973.103 523.624 868.886 1194.61 678.026 597.32 414.775 844.391 840.493 448.348 223.287 599.905 620.75 350.216 182.546 602.12 240.585 265.521 147.732 561.856 239.339 208.554 75.2764 331.032 271.325 100.391 83.7425 84.6957 28.3931
internal_count=119400 86373 74583 25848 48735 22026 3822 8251 23993 11790 10956 5428 7071 7317 2632 2589 5161 4415 16922 5528 33027 24742 6130 5474 1871 2957 24710 1190 844 575 545 4584 10792 934
is_linear=0
shrinkage=0.028079


Tree=15
num_leaves=38
num_cat=0
split_feature=8 19 3 36 21 36 2 41 16 9 32 25 39 24 16 34 34 9 3 12 4 23 19 16 12 19 9 35 24 24 4 7 23 4 24 24 4
split_gain=3688.73 3638.23 1964 1609.81 1589.94 1251.01 1511.58 702.71 604.499 602.093 567.866 494.214 420.321 396.769 349.517 345.273 506.333 223.278 169.245 153.723 136.192 135.44 121.024 93.8735 244.835 80.6649 74.5546 288.646 64.1857 40.7103 9.66962 9.21995 8.54052 6.23328 4.00474 2.39696 1.92005
threshold=0.64973458647727977 0.038973540067672736 -0.069531083106994615 -2.9598184823989864 -4.2484719753265372 0.6524072289466859 -0.92951461672782887 0.52189168334007274 -1.2121014595031736 -1.7954175472259519 -0.0080566275864839536 1.8551135063171389 0.25463490188121801 -0.83095183968543995 -0.2285426929593086 -0.49625705182552332 -0.53152790665626515 -0.10227062925696372 -0.47446064651012415 -3.7792536020278926 0.83640268445014965 -980.04577636718739 -0.87836620211601246 -2.4457684755325313 -5.7096335887908927 -3.0453933477401729 3.2205836772918706 3.2547253370285039 -2.8329511880874629 -1.7384575009346006 2.6965044736862187 -0.73523974418640126 75.080371856689467 2.0928673744201665 -2.1859091520309444 -2.0171524286270137 1.6179091930389407
decision_type=2 2 2 2 2 2 2 2 2 2 2 2 2 2 2 2 2 2 2 2 2 2 2 2 2 2 2 2 2 2 2 2 2 2 2 2 2
left_child=1 2 8 23 -4 6 -6 19 20 12 29 -7 -5 -9 33 16 -2 35 -11 -8 -1 -20 -19 -3 -25 -17 27 -22 -23 31 34 -10 -18 -12 -27 -16 -33
right_child=15 3 4 9 5 11 7 13 10 18 14 -13 -14 -15 17 25 32 22 21 -21 26 28 -24 24 -26 30 -28 -29 -30 -31 -32 36 -34 -35 -36 -37 -38
leaf_value=0.049389033646144033 -0.06978217212676957 0.045477121833413729 -0.081204573560159449 -0.064570870321403115 0.16359917023298015 -0.031944729866363653 0.023956178171767546 0.039654835208415326 -0.010456854902063365 -0.080881300800927758 -0.035107307842580954 0.11775825056272687 0.025835415309550063 0.094474606788141541 -0.063032651909839574 -0.14622846983153445 0.0075968051504076723 0.024881740854881301 0.015111652757602336 -0.043840252673978709 -0.071896273089020274 -0.074508965352003145 -0.045256648858071916 0.029287798965809315 -0.052674730163536618 -0.062281625253427751 0.025895141725104098 0.02715658635931208 -0.042012441268281346 -0.030604138133775362 -0.077311173685895643 -0.022273331828396629 0.027201357498826049 -0.077655729387962655 -0.038299212050613984 -0.011483225189971259 -0.087206646386321252
leaf_weight=143.48440551757812 88.154446115848259 140.39482823436265 57.992125909338938 50.27903936507937 76.13179488669266 15.378264164173741 31.363051594875287 920.42080880040885 3.7069074139435534 212.13994283232023 28.527871979822521 308.77372155699413 128.12745015183464 116.57041226950241 20.123476673761619 9.8926301961764675 34.410810424509691 251.59736209464609 22.891974721846054 84.45111983649258 26.678189479083812 80.578180079464801 14.115395225497194 141.61143493652344 28.362842673552223 137.96968229147024 166.3120210733905 64.582767456740839 259.22563123017608 28.692348365439102 179.38451094432094 6.6140097315364974 58.121843198576244 24.464062818209641 60.078893202939071 4.7381907713133833 72.695856863043446
leaf_count=1 3804 8 523 2092 188 7519 32 5494 149 4273 2075 833 144 513 672 231 404 878 121 13270 606 3651 2173 3 889 3836 48 13 39574 4459 5599 829 11 475 9993 2229 1769
internal_value=0.00821145 0.0189202 0.0375995 -0.0243725 0.0557934 0.061277 0.047808 0.0391463 0.00318158 -0.0464146 -0.0188216 0.110091 -0.0012304 0.0464556 -0.000486159 -0.057734 -0.0242956 0.0120152 -0.0602403 -0.0251381 0.0280456 -0.0467642 0.0200082 0.0289539 0.0139524 -0.0725702 0.015088 -0.00508055 -0.0511705 -0.071612 -0.0678095 -0.0820521 0.0210341 -0.0619852 -0.0566802 -0.0581721 -0.0841985
internal_weight=4099.04 3531.03 2467.41 1063.61 1611.08 1553.09 1228.94 1152.81 856.333 753.242 455.275 324.152 178.406 1036.99 343.566 568.013 180.687 290.574 574.836 115.814 401.057 362.696 265.713 310.369 169.974 387.326 257.573 91.261 339.804 111.709 377.433 83.0168 92.5327 52.9919 198.049 24.8617 79.3099
internal_count=119381 95503 44748 50755 28372 27849 19497 19309 16376 49855 15708 8352 2236 6007 8502 23878 4219 5952 47619 13302 668 43346 3051 900 892 19659 667 619 43225 7206 19428 2747 415 2550 13829 2901 2598
is_linear=0
shrinkage=0.028079


Tree=16
num_leaves=27
num_cat=0
split_feature=19 13 18 6 15 25 24 31 5 19 0 23 24 31 19 19 35 2 15 30 2 25 13 3 13 15
split_gain=5335.01 3517.77 4047.93 2894.32 2188.82 1234.51 1157.74 1427.59 1081.05 646.183 556.989 510.47 438.713 435.097 406.596 384.3 278.023 248.726 349.315 233.245 165.354 354.241 149.196 40.9132 18.8316 4.07738
threshold=0.7988596260547639 5.813582420349122 3.0348211526870732 5.4619669914245614 0.27503046393394476 -0.61967387795448292 -2.9801399707794185 1.4179663658142092 0.90527552366256725 -0.89843493700027455 0.4076377153396607 -8.1595106124877912 -3.4677735567092891 -0.15331915766000745 -3.6150081157684322 -3.6150081157684322 0.12170830741524698 0.013682767283171417 1.4722686409950259 -0.61991912126541127 -0.26916432380676264 2.586744070053101 5.447308063507081 -0.394093707203865 5.2004122734069833 1.564711928367615
decision_type=2 2 2 2 2 2 2 2 2 2 2 2 2 2 2 2 2 2 2 2 2 2 2 2 2 2
left_child=1 2 4 6 5 -1 7 15 10 17 13 -10 -7 16 -5 -3 -6 20 -19 -15 21 -8 -2 24 -14 -22
right_child=22 3 -4 14 8 12 9 -9 11 -11 -12 -13 23 19 -16 -17 -18 18 -20 -21 25 -23 -24 -25 -26 -27
leaf_value=0.042453050033859789 -0.038737455175245385 -0.21798492746537665 0.19534194330833457 0.077761173885167303 -0.030120970375763216 0.027359885079291189 -0.087704989391565194 0.010879179004491082 0.13111029648824368 -0.070534053095679616 -0.03913730356935765 -0.026994889018206372 -0.016921996911342402 -0.035778191130541495 0.026118050385678881 -0.080021472304453695 0.068232219121257001 -0.082205554742392523 0.022837921057618303 0.036965736271582825 0.01985110451070015 0.026786657073768042 -0.077644257624143148 -0.038963036732643855 -0.078561853286922972 0.029014689759503397
leaf_weight=303.19385501180659 130.08738297445234 12.55990045697399 135.32677756447811 251.10741021257127 19.298422984749777 76.266953837883193 27.163602106607868 159.96554416866275 188.79313952606753 84.988120788882952 48.406713040865725 14.997355167899512 9.6210257104830799 31.547718313784571 245.95796155028074 343.02931253018323 815.04985628541908 43.562557037657825 43.761807165719802 479.75992063427111 159.72725959619856 48.826385706983274 365.52390549372649 286.07759082355187 39.899077094247332 218.4195687706524
leaf_count=2896 9836 280 45 189 6332 187 417 266 683 4740 7112 2748 4557 3443 176 6973 5364 799 14 9051 487 53 6616 45503 791 56
internal_value=0.0181725 0.0287481 0.0500101 -0.00309417 0.0408989 3.6431e-05 -0.0276887 -0.058526 0.0590992 -0.00191542 0.0497598 0.118926 -0.0313907 0.0531582 0.0529803 -0.0893256 0.0657076 0.00967692 -0.0319358 0.0320221 0.0180699 -0.0183677 -0.0681666 -0.0450504 -0.0704094 0.0256084
internal_weight=4582.92 4087.31 2448.24 1639.07 2312.91 715.059 1142 515.555 1597.85 626.449 1394.06 203.79 411.865 1345.66 497.065 355.589 834.348 541.461 87.3244 511.308 454.137 75.99 495.611 335.598 49.5201 378.147
internal_count=119614 103162 88712 14450 88667 53934 14085 7519 34733 6566 31302 3431 51038 24190 365 7253 11696 1826 813 12494 1013 470 16452 50851 5348 543
is_linear=0
shrinkage=0.028079


Tree=17
num_leaves=29
num_cat=0
split_feature=10 33 2 23 22 20 9 25 10 9 28 10 3 9 6 15 5 2 33 34 15 37 14 14 18 15 32 18
split_gain=6738.14 4467.05 1998.23 1945.1 1451.07 1199.17 1025.15 692.885 666.442 680.402 649.818 1217.8 561.408 366.27 322.763 266.22 261.548 214.534 164.487 159.347 369.438 148.85 97.9481 79.8645 72.7197 66.672 53.6672 12.8182
threshold=-0.76415035128593434 1.0764348506927492 -0.92951461672782887 3.7352961301803593 -0.10493897274136542 -0.66052055358886708 0.95235836505889904 0.56028908491134655 0.46448618173599249 -1.8719635009765623 0.0096627241000533121 2.6359755992889409 -0.22574049979448316 -0.051278229802846902 -0.016541854478418824 0.088946901261806502 -0.9625439941883086 1.0000000180025095e-35 1.0226981043815615 -0.14579047262668607 -1.341197609901428 -0.29578298330307001 3.9682872295379643 -0.34063123166561121 0.047570422291755683 1.3898377418518069 -0.0080566275864839536 0.50660017132759105
decision_type=2 2 2 2 2 2 2 2 2 2 2 2 2 2 2 2 2 2 2 2 2 2 2 2 2 2 2 2
left_child=18 3 -3 4 6 21 7 13 22 -10 11 27 -7 24 23 -8 -16 -13 -1 26 -21 -6 -4 -14 -2 -17 -12 -11
right_child=1 2 8 -5 5 12 15 -9 9 10 19 17 14 -15 16 25 -18 -19 -20 20 -22 -23 -24 -25 -26 -27 -28 -29
leaf_value=-0.038169663313444013 0.011251515806669393 0.10497259179280696 -0.069832423369449184 -0.043512460335143263 0.026180663376768974 -0.043307141015235008 0.096392256413416616 -0.040233590154401463 -0.084018777166323555 -0.068560183564496224 0.0077916425199374851 0.016683042668685203 0.11881424305337719 -0.039670576045844931 0.078466676693756385 0.038680789019029223 -0.0244280281612658 -0.033709645103963182 -0.072607154720225581 0.018639064698675236 -0.072233865900511576 -0.037458600115479794 0.013085995734769493 0.080967491524004093 0.041431935644342111 0.065608327911794342 0.028804790669499331 -0.11171064381145811
leaf_weight=185.27565943676746 76.158087743562646 117.50111381728493 151.56646524761891 140.40350617142394 54.595377379853744 17.947951733498485 235.31578548328253 104.09238186391303 73.072499708330724 78.438298172608484 131.71078954827681 260.3194856003829 516.16369550162926 43.881432590045733 262.18024530424736 158.81828966387548 17.630522186285816 81.193205747724278 434.2454132513667 116.83147826403547 41.779646551221958 46.829777071834542 9.7450796810444427 130.95673722526408 739.68346769633354 280.03521576267667 428.97031260826043 61.379401622951264
leaf_count=23593 2519 211 4509 15197 284 3270 1112 14315 1894 1308 815 338 1914 5117 1230 978 4568 524 9682 210 1380 15644 37 5526 2007 37 465 883
internal_value=0.0232693 0.0355513 -0.00271545 0.0565346 0.061875 0.0877491 0.0450205 0.0261169 -0.0120364 -0.00505607 0.00024481 -0.0247877 0.097524 0.0344307 0.100579 0.0714571 0.0715119 0.00423236 -0.0628918 0.0170794 -0.00749233 -0.00376215 -0.064462 0.112177 0.0387436 0.0566825 0.0240377 -0.0922561
internal_weight=4996.72 4377.2 1552.51 2824.69 2684.29 1046.3 1637.98 963.815 1435.01 1273.7 1200.62 481.33 944.879 859.723 926.931 674.169 279.811 341.513 619.521 719.292 158.611 101.425 161.312 647.12 815.842 438.854 560.681 139.818
internal_count=119567 86292 12574 73718 58521 32436 26085 23958 12363 7817 5923 3053 16508 9643 13238 2127 5798 862 33275 2870 1590 15928 4546 7440 4526 1015 1280 2191
is_linear=0
shrinkage=0.028079


Tree=18
num_leaves=30
num_cat=0
split_feature=13 18 10 7 19 19 8 28 35 36 16 14 36 19 16 19 18 35 25 15 38 18 4 10 19 5 13 28 13
split_gain=7938.12 3329.4 2497.95 2046.87 1902.07 1076.87 859.024 858.074 925.361 837.896 757.894 543.407 463.681 432.692 396.191 325.546 299.814 223.256 144.601 203.79 46.4454 43.755 37.1494 29.0808 20.445 23.2048 14.8019 5.66141 3.39201
threshold=5.813582420349122 3.0348211526870732 -0.76415035128593434 -1.6115489602088926 0.28084097802639013 -0.71690604090690602 0.26733939349651342 0.28410367667675024 -0.20302651077508924 0.4775069952011109 -2.4457684755325313 -6.4973342418670645 -0.23813933134078977 -0.73369756340980519 0.4025424867868424 -3.0453933477401729 -1.1887692213058469 0.24937694519758227 0.39261125028133398 -1.341197609901428 0.12511508166790011 0.39516448974609381 2.2048964500427251 0.49079164862632757 0.11137548834085466 0.9474548101425172 5.3987920284271249 0.20027016848325732 5.4233295917510995
decision_type=2 2 2 2 2 2 2 2 2 2 2 2 2 2 2 2 2 2 2 2 2 2 2 2 2 2 2 2 2
left_child=1 2 28 22 7 6 11 8 -4 12 -6 -5 -10 23 -9 21 -12 -11 19 -17 -20 -13 -2 -8 25 27 -18 -24 -1
right_child=3 -3 4 5 10 -7 13 14 9 17 16 15 -14 -15 -16 18 26 -19 20 -21 -22 -23 24 -25 -26 -27 -28 -29 -30
leaf_value=-0.037736195126459836 0.041144832145459949 0.17604315687974173 -0.035300966271619778 -0.07918881347642219 0.045999783018693501 -0.071163900849204292 -0.057445785694254091 -0.03414587565929475 0.047878869316023094 0.090314945674025315 0.024194118979509831 -0.018478567361593864 -0.03290698222891851 0.021549175278273585 0.10700764258967069 0.021365412704206364 -0.038756374694434902 -0.022677467215844405 -0.0023227288586504793 -0.077149392699711286 0.024273397699584073 -0.085786604341054701 -0.0073064485783260634 -0.10507015994823965 0.028977358420895261 0.024687821130644983 -0.063542798622574947 0.0080207587722909545 -0.055990394565918734
leaf_weight=172.61546587623889 145.42942404803762 147.89259284076979 85.85538304495276 56.771575860155281 141.6302285483689 587.95625199744245 50.689733782681287 13.101391406147739 1284.0563841328258 492.55013091815636 54.317815835849615 17.383621897402918 53.496759695088258 28.951548706405447 330.35372111163451 29.964529302931624 166.12725127424346 11.385642336361341 59.317288176200236 23.645690989302238 341.44183281611186 21.450210419043287 33.944986259200959 93.710597438439436 135.5157793694525 47.967011962391553 53.005397182248998 27.508295384479425 63.655892410941306
leaf_count=22883 20 63 17685 511 36 14431 1485 3752 4390 3983 205 64 10309 33 1366 87 26174 4395 675 430 512 289 183 762 10 28 1884 150 2770
internal_value=0.0221717 0.0490916 0.0422293 -0.0263984 0.0499381 -0.0431508 -0.0198804 0.0600104 0.0523396 0.0565531 -0.00525251 -0.00238832 0.0444812 -0.0729597 0.101005 0.00751275 -0.0323207 0.087465 0.0145278 -0.0262462 0.0203667 -0.0635694 0.029626 -0.0920375 0.0217608 0.0115295 -0.0466687 -0.000318548 -0.0442358
internal_weight=4771.69 3070.04 2922.15 1701.65 2685.88 1311.28 723.327 2270.8 1927.34 1841.49 415.081 549.975 1337.55 173.352 343.455 493.203 273.45 503.936 454.369 53.6102 400.759 38.8338 390.365 144.4 244.936 109.42 219.133 61.4533 236.271
internal_count=119565 99895 99832 19670 74179 19279 4848 45880 40762 23077 28299 2568 14699 2280 5118 2057 28263 8378 1704 517 1187 353 391 2247 371 361 28058 333 25653
is_linear=0
shrinkage=0.028079


Tree=19
num_leaves=26
num_cat=0
split_feature=10 33 15 23 21 21 21 15 20 32 14 11 5 16 32 25 25 10 25 16 33 8 24 5 10
split_gain=5558.22 2778.71 1806.32 1500.69 765.206 751.438 700.727 923.218 680.702 747.745 722.289 483.426 460.819 356.354 337.107 326.592 498.779 238.054 187.376 185.913 117.184 111.078 100.195 77.1393 98.2521
threshold=-0.76415035128593434 1.0705105662345888 -2.8518203496932979 3.7352961301803593 -8.563318729400633 0.13018008321523669 -1.8373710513114927 -0.65363609790801991 -0.4210688024759292 1.007341265678406 0.081485547125339522 -1.1389048695564268 0.99402859807014476 -0.0066059839446097604 -0.13460768759250638 0.90379548072814953 0.85320895910263073 1.4716290831565859 0.60551798343658458 -0.66589441895484913 1.0226981043815615 -1.1328290700912473 -3.6204189062118526 -0.25709766149520868 -0.27188898622989649
decision_type=2 2 2 2 2 2 2 2 2 2 2 2 2 2 2 2 2 2 2 2 2 2 2 2 2
left_child=20 3 -3 5 22 8 15 13 9 10 -2 -10 -9 -8 19 16 -6 -16 -12 -13 -1 -15 -4 24 -17
right_child=1 2 4 -5 6 -7 7 12 11 -11 18 14 -14 21 17 23 -18 -19 -20 -21 -22 -23 -24 -25 -26
leaf_value=-0.037199391008159083 -0.040039930114336424 0.059446501287714351 -0.14703245248011038 -0.042780225019461271 -0.084518730321577112 -0.040519090998659517 -0.055620525456940573 -0.073387823370676702 -0.035666026808673638 0.080933615036111517 0.039579812551083338 0.061196316720806082 0.015306003941584089 0.02863675824041394 -0.029024068783442894 0.027085303585944114 0.025786990385379072 0.054189262168945707 -0.030770136324191837 0.092552624742662418 -0.067434197496380646 -0.0042470107143629905 -0.055443827652136846 0.026430443115184672 -0.0180499763978802
leaf_weight=174.83065109627205 105.95869254879653 371.83210245685223 21.743518931983999 126.39400070239208 54.96440876336419 58.781741075043101 57.615465753857279 271.99897452081495 28.313235346780857 259.90529889633763 668.00929475133307 291.99114830125473 52.531657850398915 203.38721789342526 25.172877425007755 62.485053816606523 61.403337875701254 287.26588251831708 25.905951463122619 608.2572744905774 443.96429112194164 128.63572153318091 37.73357872217457 517.04865185724339 75.767999076233536
leaf_count=23700 18823 216 231 14954 633 8763 1280 8065 2487 2942 4551 1188 189 101 7543 31 15 365 6295 5278 9663 1442 252 264 311
internal_value=0.0188813 0.0299716 0.00453559 0.0495146 -0.00890182 0.0545792 -0.00469096 -0.0246055 0.0571334 0.0401098 0.0262119 0.0713407 -0.0590094 0.00462654 0.0740443 0.0137995 -0.0282893 0.0469582 0.0366505 0.0829759 -0.0594433 0.0160854 -0.101718 0.0215107 0.00269563
internal_weight=5021.9 4403.1 1917.15 2485.96 1545.32 2359.56 1485.84 714.169 2300.78 1059.78 799.874 1241 324.531 389.638 1212.69 771.669 116.368 312.439 693.915 900.248 618.795 332.023 59.4771 655.302 138.253
internal_count=119582 86219 13030 73189 12814 58235 12331 11077 49472 32611 29669 16861 8254 2823 14374 1254 648 7908 10846 6466 33363 1543 483 606 342
is_linear=0
shrinkage=0.028079


Tree=20
num_leaves=23
num_cat=0
split_feature=10 13 17 15 35 10 28 18 0 38 2 1 28 0 35 19 19 18 13 25 29 13
split_gain=5679.52 3341.81 2314.47 1882.38 1630.79 1283.42 863.213 773.005 620.132 566.266 475.653 466.438 432.414 415.258 265.486 213.141 175.294 175.222 86.866 83.7435 33.0114 5.05582
threshold=-0.76415035128593434 5.813582420349122 0.96252074837684642 -2.8518203496932979 -0.29015351831912989 0.31148785352706915 -0.15378131717443463 -0.62341049313545216 0.80259621143341076 -0.62699949741363514 0.53109875321388256 -7.419632911682128 0.32322944700717932 -3.2525849342346187 1.6887938380241396 -0.87836620211601246 -3.6150081157684322 -1.1887692213058469 5.4233295917510995 1.9088444113731386 2.2159470319747929 5.3987920284271249
decision_type=2 2 2 2 2 2 2 2 2 2 2 2 2 2 2 2 2 2 2 2 2 2
left_child=18 2 4 -3 -2 21 7 13 11 -8 14 -7 -13 -5 15 -11 -9 -10 -1 -4 -16 -6
right_child=1 3 19 6 5 8 9 16 17 10 -12 12 -14 -15 20 -17 -18 -19 -20 -21 -22 -23
leaf_value=-0.036979806948606316 -0.040034579295976876 0.062449537430287673 0.094383615726909606 0.020780603578968146 -0.036032911166884854 -0.033141888684688287 -0.063152334124547085 -0.19494698879646691 0.026914176285929032 0.023368731534148889 -0.063595868265456365 0.055435383574373095 0.097574967766538526 -0.062861277418047395 -0.069993032350505482 -0.012441598133784206 -0.079202187609422214 -0.040635470488677279 -0.064343662717972733 0.14440247033619283 -0.0026847133344889817 -0.066028760495382227
leaf_weight=162.95500456119771 164.573493945878 324.74089468966122 117.01996002049418 119.17966800229624 64.272767679940443 37.750672769587254 90.603253200846666 9.2616599853208736 49.561246781551745 675.01337913626776 60.960954263617168 1554.0427623086143 232.28443281058571 66.940783671700046 24.909870744202635 157.08591899467865 146.37476434462587 57.54531009317725 455.18790086066292 175.07007002099999 7.7339553788187905 27.096807576890569
leaf_count=22834 26896 199 1688 45 21031 6443 1888 176 7 609 1182 11934 425 1529 1313 3019 2421 3664 10236 465 18 1148
internal_value=0.0212856 0.0330942 0.0537732 0.00252445 0.0435569 0.0504822 -0.0120709 -0.0501501 0.0553763 0.00100948 0.00774945 0.0592195 0.0613026 -0.0105802 0.013286 0.0165573 -0.0947913 -0.00966428 -0.0576633 0.127247 -0.0575464 -0.0492895
internal_weight=4780.17 4162.02 2479.22 1682.81 2187.13 2022.55 1358.06 341.757 1931.18 1016.31 925.704 1824.08 1786.33 186.12 864.743 832.099 155.636 107.107 618.143 292.09 32.6438 91.3696
internal_count=119170 86100 73701 12399 71548 44652 12200 4171 22473 8029 6141 18802 12359 1574 4959 3628 2597 3671 33070 2153 1331 22179
is_linear=0
shrinkage=0.028079


Tree=21
num_leaves=28
num_cat=0
split_feature=13 10 2 42 22 10 36 32 26 0 1 27 1 38 26 22 1 10 13 28 33 13 8 22 30 13 24
split_gain=4854.74 2899.18 2324.74 1587.28 1557.71 1345.25 1085.07 987.044 730.231 546.434 449.01 444.843 443.679 322.403 282.796 270.694 248.658 224.02 121.439 36.8559 35.3068 24.1465 19.5802 13.0393 121.444 7.74266 7.73593
threshold=4.9143900871276864 -0.48379731178283686 -0.10498681291937827 1.3072748780250552 -0.043107166886329644 -0.46962140500545496 -0.048341082409024232 -0.4896628856658935 0.13530354201793673 0.10024754703044893 3.0502612590789799 -0.67484626173973072 17.522425651550297 2.5826518535614018 0.1075187809765339 0.016397457569837574 0.7460000514984132 1.6199235916137698 4.8981168270111093 -0.29908213019371027 1.0226981043815615 6.709022283554078 -1.8795474767684934 -1.4002994298934934 -1.3275110721588133 5.5390183925628671 -0.880426526069641
decision_type=2 2 2 2 2 2 2 2 2 2 2 2 2 2 2 2 2 2 2 2 2 2 2 2 2 2 2
left_child=2 20 4 5 7 -3 8 9 10 17 14 -8 15 -12 -7 26 -13 23 -14 -18 -2 -10 -5 -1 -25 -24 -6
right_child=1 3 -4 22 12 6 11 -9 21 -11 13 16 18 -15 -16 -17 19 -19 -20 -21 -22 -23 25 24 -26 -27 -28
leaf_value=0.047096960490638023 -0.034240195889262533 0.11215071465386933 -0.036076748069218074 -0.032256276300268637 0.0598239653380001 0.02129697253408025 -0.068446853829830429 -0.038378689887697735 -0.032014560361299786 -0.035209318869287284 -0.066787300551722842 -0.052954085629910448 0.10161780642268924 0.018534126461024838 0.049097848578237978 -0.022350081648783052 0.02636195084539885 0.077189210345324583 0.15395040684532779 -0.0062458879734896373 -0.062595413772968483 -0.076685721072584076 -0.027627581458782944 0.039530481646360582 -0.029843508184917572 -0.092005419164974303 0.082060673678273563
leaf_weight=141.89170837402344 70.373866247886326 103.06803769196267 188.03468917304417 17.310895694805367 146.29363125551026 1104.9858642092731 153.3389966795512 112.20565933466423 34.328686626737181 49.07890834036516 62.78553962429578 48.523675338783505 343.02912417263724 64.257136858192098 396.81922501315421 20.496608839952387 90.94921101052023 264.64603824005462 80.245135254284833 34.366359106090385 498.83977938686439 41.017481873372162 9.7028880957222992 129.60125888581388 17.606331381364726 99.207928012285265 256.46013032068731
leaf_count=1 6524 142 44321 152 2340 3298 5350 14483 3118 3929 1809 2606 2914 67 314 9947 163 60 16 988 11232 986 476 76 2035 1649 276
internal_value=0.019373 -0.00338064 0.0560324 0.010922 0.0672439 0.0167482 0.0115103 0.0361618 0.0205144 0.0503395 0.0245543 -0.0347951 0.0929461 -0.0250136 0.0288516 0.0701986 -0.0034981 0.0582934 0.114063 0.0175728 -0.0595839 -0.0611028 -0.0829841 0.0394714 0.030182 -0.088433 0.0752331
internal_weight=4579.46 2829.88 1749.59 2260.66 1561.55 2134.44 2031.37 715.03 1704.19 602.824 1628.85 327.178 846.525 127.043 1501.81 423.25 173.839 553.745 423.274 125.316 569.214 75.3462 126.222 289.099 147.208 108.911 402.754
internal_count=119272 38874 80398 21118 36077 18841 18699 20584 9592 6101 5488 9107 15493 1876 3612 12563 3757 2172 2930 1151 17756 4104 2277 2112 2111 2125 2616
is_linear=0
shrinkage=0.028079


Tree=22
num_leaves=34
num_cat=0
split_feature=24 26 33 22 19 10 8 41 36 1 9 25 23 1 22 26 25 10 36 28 2 26 9 19 3 23 23 1 1 9 33 33 23
split_gain=5688.32 2134.88 1522.52 1400.15 1196.68 1193.1 1064.37 885.573 512.912 781.154 502.11 497.116 416.663 297.627 263.664 225.734 291.356 214.386 192.992 181.732 146.132 145.861 122.634 110.243 62.8859 90.2942 85.7672 29.0821 77.908 25.164 16.6225 4.24556 4.12031
threshold=-2.5930647850036617 -0.088861372321844087 1.0764348506927492 -0.033034676685929291 0.038973540067672736 -0.28808005154132837 0.37483307719230657 0.42304830253124243 -0.68809759616851796 0.93564665317535411 1.705472528934479 -0.29259495437145228 1.4247428178787234 -7.419632911682128 -0.98497948050498951 -0.046829830855131142 1.5783874392509463 2.4466919898986821 -0.86775723099708546 -0.33238177001476282 -1.0477018952369688 -0.084688253700733171 2.9782155752182011 -3.0453933477401729 -0.87954571843147267 -13.034707546234129 -6.1996004581451407 8.9419384002685565 -701.79238891601551 4.557622194290162 1.0226981043815615 1.0226981043815615 -4.4845480918884268
decision_type=2 2 2 2 2 2 2 2 2 2 2 2 2 2 2 2 2 2 2 2 2 2 2 2 2 2 2 2 2 2 2 2 2
left_child=5 31 3 4 10 30 8 13 15 29 11 32 -4 19 -6 24 -17 20 -14 -5 -11 -15 -18 -8 -7 -26 -27 28 -20 -10 -1 -2 -3
right_child=1 2 12 7 14 6 23 -9 9 17 -12 -13 18 21 -16 16 22 -19 27 -21 -22 -23 -24 -25 25 26 -28 -29 -30 -31 -32 -33 -34
leaf_value=-0.033671290403297541 -0.038536497384450988 0.041388084632936986 -0.072003146578414889 0.06081946142367619 0.027747330703147745 0.028990229590719667 -0.14934489534500142 -0.029704956715611412 -0.068722178025234074 0.020635828975831754 0.06477182897184379 -0.035133331951215201 -0.05360409711434052 0.13654185596809457 -0.038344969438710609 -0.072885814749861638 -0.040866599747774367 0.024170675934965823 0.023479512413528678 -0.024537512370695059 -0.062173452550352497 0.089483810253770932 0.02629319436885514 -0.063186346779317046 0.021335436633898242 0.018979506135779037 -0.054488173251929249 0.027450981032551568 -0.047090686821688967 -0.013451971489351438 -0.060866283561396402 -0.059643786422347231 0.029676986536290022
leaf_weight=51.503530348360073 150.37066060843063 393.62186799655319 71.703472179666278 142.44183144572889 59.049991405510809 439.95021438368713 12.621085038590534 49.335886534943711 167.8213905993216 21.583189953831607 689.0174288530543 76.638441907474771 27.44982459206949 88.740796318394132 168.46109949494712 39.510295859457983 20.928130724016228 190.55685545972665 28.814641416276572 18.480125381844118 39.04389092677593 621.50244487830787 82.212586337336688 129.98890882117121 90.835256494348869 16.089267311035655 23.129800828937732 99.515387422899948 11.114657330967018 11.075260069563226 447.25280793502316 49.093180179348565 135.7850820805761
leaf_count=3060 17786 1239 3523 299 14 117 152 16017 3652 17 310 12993 1069 93 23120 726 725 118 11 10198 1367 8348 19 2710 158 11 411 81 789 36 7765 1150 1408
internal_value=0.0172589 0.0416159 0.0482219 0.054822 0.0379815 -0.0220847 -0.00765529 0.0821417 0.00156973 -0.0224158 0.0483779 0.0291718 -0.0189672 0.0886767 -0.0208506 0.016128 -0.0148716 0.00963402 0.00594903 0.0503567 -0.0336728 0.0967379 0.0108078 -0.0779376 0.023979 0.0063665 -0.0261503 0.0198234 -0.000528936 -0.0659838 -0.058602 -0.0457175 0.0388439
internal_weight=4665.24 2881.14 2681.67 2443.07 1522.57 1784.1 1285.35 920.501 1142.74 430.081 1295.06 606.045 238.598 871.165 227.511 712.656 142.651 251.184 166.895 160.922 60.6271 710.243 103.141 142.61 570.005 130.054 39.2191 139.445 39.9293 178.897 498.756 199.464 529.407
internal_count=119492 98448 79512 74039 39084 21044 10219 34955 7357 5190 15950 15640 5473 18938 23134 2167 1470 1502 1950 10497 1384 8441 744 2862 697 580 422 881 800 3688 10825 18936 2647
is_linear=0
shrinkage=0.028079


Tree=23
num_leaves=33
num_cat=0
split_feature=13 1 21 21 10 16 10 2 29 32 8 29 3 4 37 35 21 2 32 2 4 23 26 4 23 10 13 22 24 0 3 33
split_gain=3993.58 2357.95 1886.78 1429.38 1161.32 1088.89 1158.05 691.816 571.834 557.456 479.619 473.956 434.812 432.677 417.598 395.453 309.907 204.499 183.138 177.901 113.046 88.025 244.321 82.6805 142.084 65.1136 58.0335 46.068 23.4209 48.9221 18.6298 4.9056
threshold=5.813582420349122 -7.419632911682128 5.1716394424438485 0.17488315701484683 -0.28808005154132837 0.4025424867868424 -0.27188898622989649 -0.92951461672782887 1.1373026371002199 -1.1598933339118955 -1.8795474767684934 1.2711484432220461 0.34815016388893133 2.619519948959351 -0.20663718134164807 -0.20302651077508924 -0.018549818545579907 -0.11777158454060553 -0.42635338008403773 -1.0477018952369688 1.9462619423866274 -518.03561401367176 0.038913793861866004 2.6965044736862187 -198.48819732666013 -0.25568720698356623 3.8484313488006596 -0.98497948050498951 -3.6204189062118526 -1.6714408993721006 -0.394093707203865 1.0226981043815615
decision_type=2 2 2 2 2 2 2 2 2 2 2 2 2 2 2 2 2 2 2 2 2 2 2 2 2 2 2 2 2 2 2 2
left_child=1 30 4 5 -2 6 -3 -4 9 -6 -10 15 13 19 27 -8 -15 -17 26 -11 -9 -16 -23 -22 -25 -20 -13 -7 29 -12 31 -1
right_child=2 3 7 -5 8 14 11 20 10 12 28 18 -14 16 21 17 -18 -19 25 -21 23 22 -24 24 -26 -27 -28 -29 -30 -31 -32 -33
leaf_value=-0.013476402771347075 -0.058606859529009049 -0.040683851446502432 0.10640425809881725 -0.042006688314009222 -0.069512492452135366 0.027604392846762724 -0.034511476235969098 0.038896128087911597 0.015908026259656854 0.020779461644051662 -0.13069596517523793 0.079330801897054937 -0.065784149917636106 0.022852243472373392 0.12286656873063344 0.04330398876143101 -0.024450129901566284 -0.0011837706428262968 0.03803275865820057 -0.06463327492772683 0.024100126288315083 -0.029660774230697788 0.086802792019979674 0.021914776042588929 -0.057472909669205166 -0.021239617450355616 0.057235862054759445 -0.022048608246328164 -0.059556541406648789 -0.045209346580033921 -0.036014793848026874 -0.064769349714604255
leaf_weight=6.2630930156446984 439.23067637773056 117.51902101680753 108.78760072789737 124.98862654698314 74.419122045284894 57.814516605925746 53.390008322807262 154.25463576163747 53.875086624982941 21.374803402664838 25.907879751666769 393.12458084721584 54.574827428223216 809.24221981192022 96.43354436091613 1088.8853175655531 119.73573246395972 87.576185504673049 122.47370908956509 71.303837866158574 60.61168370917585 11.173709921567932 503.94771993566246 28.628654212036054 29.112428055637793 11.619641552562824 288.39937880920479 12.884944906792951 74.796572579478379 20.346469483731198 175.65807908066199 46.422660107709817
leaf_count=3389 9154 15151 19 9892 1954 12 8290 7 70 13 207 678 2913 1075 30 5121 1293 6457 11 1136 16 3762 3782 19 411 2639 223 5780 1106 371 34042 324
internal_value=0.0224376 0.0422832 -0.00718361 0.0489778 -0.0194502 0.0530753 0.0430487 0.0488524 -0.00621711 0.00109914 -0.0523971 0.0479913 0.00643206 0.010744 0.0840441 0.0365801 0.0166075 0.0400059 0.0647047 -0.0448528 0.0236368 0.091455 0.0838845 0.00260875 -0.0201291 0.0320382 0.0707105 0.0173007 -0.0819462 -0.104713 -0.0435797 -0.0611255
internal_weight=5344.78 3198.57 2146.2 2970.23 1764.81 2845.24 2162.99 381.395 1325.58 1150.65 174.926 2045.47 1076.23 1021.66 682.254 1229.85 928.978 1176.46 815.617 92.6786 272.607 611.555 515.121 118.353 57.7411 134.093 681.524 70.6995 121.051 46.2543 228.344 52.6858
internal_count=119347 99583 19764 61828 19292 51936 38570 472 10138 8384 1754 23419 6430 3517 13366 19868 2368 11578 3551 1149 453 7574 7544 446 430 2650 901 5792 1684 578 37755 3713
is_linear=0
shrinkage=0.028079


Tree=24
num_leaves=28
num_cat=0
split_feature=24 36 36 18 3 12 35 2 3 35 31 35 36 18 30 31 36 31 5 8 12 26 8 31 31 8 9
split_gain=3579.04 2048.7 2043.65 1684.76 1270.14 1120 1048.33 662.973 652.154 561.054 546.509 506.715 495.782 425.09 221.463 356.043 203.746 176.166 181.194 92.1538 191.878 57.5017 47.9083 31.0851 23.5685 8.27878 8.19345
threshold=-2.5930647850036617 -0.94846859574317921 -2.9598184823989864 3.0348211526870732 -0.34707906842231745 1.2304251790046694 0.066033173352479949 -0.92951461672782887 0.24775440245866778 1.5435580611228945 1.7828419208526614 -0.62158173322677601 0.1474053040146828 0.23168863356113437 -0.85530433058738697 0.70060327649116527 -2.5474714040756221 0.54820606112480175 -0.24350921064615247 0.40576134622097021 1.1849963665008547 -0.56316539645194996 -0.36140318214893336 0.59504759311676036 -0.5884987711906432 -2.6865683794021602 4.557622194290162
decision_type=2 2 2 2 2 2 2 2 2 2 2 2 2 2 2 2 2 2 2 2 2 2 2 2 2 2 2
left_child=2 -2 7 4 -3 8 16 -1 11 12 -11 -6 14 -13 15 24 21 18 -9 22 -21 -4 -16 -19 -8 -20 -14
right_child=1 3 6 -5 5 -7 9 17 -10 10 -12 13 26 -15 19 -17 -18 23 25 20 -22 -23 -24 -25 -26 -27 -28
leaf_value=0.10002961862076166 -0.045883950492805269 -0.0572978548639895 0.023187469587524441 0.12850029660626627 -0.03234173763751514 -0.042084497476721314 -0.012116239478991677 0.023222941931593379 -0.037091042463632901 -0.069192182488035436 0.01609593593504632 0.066001190542101837 -0.054749768679786773 0.039628700268003074 0.0042284517410494937 0.014529482311372671 -0.060018910614765802 0.043420492980924354 -0.0080423063586517549 -0.052597593540012193 0.023660533394882045 -0.033049664202174651 0.028067846135784259 0.023975948103441957 -0.077239119930867489 -0.056398547609515084 -0.007957000062229767
leaf_weight=113.8044948160823 185.67922208318487 90.224664752073295 29.914900710107759 190.07489084123517 48.463138183447882 101.60577746968193 8.1989431404072075 52.846798871985811 59.605471820374078 173.23275936263781 84.46852769961697 1260.7046663980873 90.635252437459712 860.08150458273303 81.282431220635772 101.68238753604237 452.87163170305575 161.21475180146808 6.0135122854117062 33.826767302693042 62.729222448804649 15.688195658702169 448.10962914202537 174.19166227404639 46.105103409856383 31.572706878752797 5.9455049433745435
